{"fc1.weight": [[-0.40377745032310486, -0.05361020192503929, 0.08121413737535477, 0.11195442080497742, 0.20053866505622864, -0.1922653317451477, 0.12868516147136688, -0.02799578569829464, 0.06285729259252548, -0.15340487658977509, 0.1329941302537918], [-0.12680809199810028, 0.3986159563064575, -0.24691803753376007, -0.10580421984195709, -0.35064393281936646, 0.07963317632675171, 0.02261531911790371, 0.20610842108726501, -0.16274228692054749, -0.19047990441322327, 0.3678203523159027], [0.07091667503118515, 0.273701548576355, -0.24628333747386932, 0.009528757072985172, -0.44612497091293335, -0.12046091258525848, 0.22885870933532715, 0.23526091873645782, -0.07205760478973389, 0.07225703448057175, 0.09611064940690994], [-0.16188067197799683, -0.1490127295255661, 0.3119507431983948, 0.18640069663524628, -0.2701296806335449, 0.34582504630088806, -0.30124491453170776, 0.15516787767410278, 0.2657102346420288, -0.3436731994152069, -0.10706058889627457], [0.21107596158981323, -0.11879066377878189, 0.09046051651239395, 0.10381544381380081, 0.2234688252210617, -0.3695242702960968, -0.30915531516075134, -0.08866747468709946, 0.06615378707647324, 0.1844550520181656, -0.31775861978530884], [0.07843441516160965, 0.32422932982444763, 0.32093560695648193, 0.03388543426990509, 0.13957300782203674, 0.09509546309709549, -0.34809988737106323, 0.2523787021636963, 0.12808094918727875, 0.31072744727134705, -0.2688051462173462], [-0.17964927852153778, -0.23906998336315155, -0.28745561838150024, -0.037754591554403305, 0.03278631716966629, 0.2290917932987213, -0.26655223965644836, -0.23031239211559296, -0.003634934313595295, 0.28114479780197144, -0.012318638153374195], [-0.2804175317287445, -0.2719098925590515, 0.16322238743305206, -0.17524932324886322, -0.31469979882240295, 0.03727983683347702, 0.044098857790231705, -0.41785189509391785, -0.09372734278440475, -0.265174925327301, 0.26292815804481506], [-0.25644591450691223, -0.14532816410064697, 0.1671864241361618, -0.06699763983488083, 0.0733281746506691, 0.1875188797712326, 0.3376309275627136, 0.2937542200088501, -0.18648241460323334, 0.13504329323768616, 0.06820543855428696], [0.38854196667671204, 0.32611989974975586, 0.063893161714077, 0.1099168136715889, 0.3267465829849243, 0.23440921306610107, 0.13438855111598969, -0.07057197391986847, 0.1340431571006775, -0.18601186573505402, 0.18726873397827148], [0.06426990032196045, 0.36902061104774475, -0.027255406603217125, -0.3802310824394226, 0.28675007820129395, -0.02837911993265152, -0.06968341022729874, -0.34934544563293457, 0.24713468551635742, 0.07295255362987518, -0.36918503046035767], [0.24715842306613922, 0.10976450890302658, 0.24053852260112762, 0.14826533198356628, -0.022443069145083427, -0.3857671022415161, 0.056016795337200165, 0.11861690878868103, -0.06564883887767792, 0.29560333490371704, -0.34646645188331604], [-0.20687216520309448, -0.26717841625213623, 0.16854627430438995, 0.2719624638557434, 0.1638634353876114, 0.08251433819532394, -0.058298032730817795, 0.2636547386646271, -0.016312530264258385, -0.00012013183732051402, 0.19819557666778564], [-0.22924882173538208, 0.09297865629196167, 0.14022201299667358, 0.05688919872045517, 0.3081870377063751, -0.025638168677687645, 0.12776395678520203, 0.15364967286586761, -0.020745960995554924, -0.16631752252578735, 0.33180350065231323], [-0.2581647038459778, 0.2705993354320526, -0.2364421933889389, 0.28087496757507324, -0.15853750705718994, 0.14649584889411926, -0.1314266324043274, -0.1910184621810913, -0.01670328713953495, -0.27598661184310913, 0.25841912627220154], [-0.13050422072410583, 0.23656515777111053, -0.19958648085594177, -0.18187861144542694, -0.05829289183020592, -0.15853308141231537, -0.06938823312520981, -0.07365681976079941, -0.26995232701301575, -0.15765133500099182, 0.03587735816836357], [0.3174265921115875, -0.13463082909584045, 0.16273806989192963, 0.2808034420013428, -0.2193688452243805, -0.005495707504451275, 0.05713987722992897, 0.2529314458370209, 0.20346520841121674, 0.11835187673568726, -0.16899943351745605], [-0.08824356645345688, 0.17331871390342712, -0.08533503115177155, -0.3747776448726654, 0.004894654732197523, 0.2569584846496582, 0.19100071489810944, -0.19450339674949646, 0.10981214791536331, -0.054677948355674744, 0.101381815969944], [0.33962950110435486, 0.06342071294784546, 0.276984304189682, -0.27293288707733154, 0.03448789566755295, 0.2546241879463196, 0.15355418622493744, 0.2927760183811188, 0.10405700653791428, 0.12450170516967773, 0.21379181742668152], [0.09698720276355743, -0.3268054723739624, -0.3346913754940033, 0.25706154108047485, 0.23603864014148712, 0.12872396409511566, -0.13649405539035797, -0.16232626140117645, 0.18267439305782318, 0.24202124774456024, -0.33484700322151184], [0.04357408732175827, 0.1229981854557991, 0.2804955840110779, 0.335630863904953, 0.29165148735046387, -0.11532126367092133, -0.016475044190883636, -0.18832290172576904, -0.09184195846319199, -0.2739640772342682, 0.3366439938545227], [-0.034332580864429474, 0.139289990067482, 0.37642067670822144, 0.300006628036499, -0.0045204926282167435, -0.04420468583703041, -0.3139716386795044, -0.0044980221427977085, -0.11227457225322723, 0.12072115391492844, -0.37449967861175537], [0.086203932762146, 0.32790037989616394, -0.22763049602508545, 0.13733620941638947, 0.37653446197509766, -0.0920088067650795, -0.15479901432991028, 0.02745819091796875, 0.04636723920702934, -0.25108009576797485, -0.18724782764911652], [0.131875678896904, 0.3189304769039154, 0.4604622423648834, 0.22180359065532684, -0.2542661726474762, -0.10536083579063416, -0.021470963954925537, -0.2997124195098877, 0.18669624626636505, -0.22064565122127533, -0.2292335033416748], [-0.42802608013153076, -0.00510528776794672, 0.2730083167552948, 0.24196495115756989, -0.1271924525499344, 0.07581932097673416, -0.14620156586170197, 0.3086622953414917, 0.1979447454214096, 0.1337132751941681, 0.06630031019449234], [0.16514159739017487, 0.048247404396533966, 0.301140159368515, -0.278886079788208, 0.3093468248844147, -0.06458881497383118, -0.2296939492225647, 0.2807455360889435, -0.17428573966026306, -0.16659605503082275, -0.21879641711711884], [0.06802693754434586, 0.013475680723786354, -0.4265066385269165, 0.2602522373199463, -0.10984890162944794, 0.21486613154411316, -0.24445830285549164, -0.11297062784433365, 0.1268877536058426, 0.06542692333459854, -0.277765154838562], [0.33643367886543274, 0.3688076436519623, 0.3166967034339905, 0.305813193321228, -0.002796366810798645, 0.10454120486974716, -0.12781204283237457, 0.29955539107322693, -0.23533204197883606, -0.2933337986469269, 0.2796739935874939], [0.20947501063346863, 0.19682557880878448, 0.20274211466312408, 0.379309743642807, 0.10876769572496414, -0.34078481793403625, -0.28956353664398193, -0.09854408353567123, 0.2448357194662094, 0.050458211451768875, -0.3878225088119507], [-0.3113097846508026, 0.40880683064460754, 0.2475425899028778, 0.054696593433618546, 0.30501365661621094, -0.1592654436826706, -0.2788833975791931, -0.20516683161258698, -0.14542023837566376, 0.019884008914232254, -0.19637735188007355], [-0.24823662638664246, 0.09065373241901398, -0.23840470612049103, -0.15243194997310638, -0.29074668884277344, 0.3909146785736084, 0.08603807538747787, 0.23322999477386475, -0.20547273755073547, 0.2201649248600006, 0.07858330756425858], [0.4239106774330139, 0.11486811935901642, 0.1704757809638977, -0.16257432103157043, -0.1378270387649536, -0.012229718267917633, 0.2871924340724945, 0.20659157633781433, -0.18636290729045868, 0.10012990981340408, -0.26106417179107666], [0.325206995010376, 0.04605061188340187, 0.3342684209346771, 0.20023418962955475, -0.0579255148768425, 0.20429909229278564, 0.177955761551857, -0.22551116347312927, 0.03787929564714432, -0.029448848217725754, -0.06486407667398453], [-0.22103320062160492, -0.09916359186172485, 0.22800740599632263, -0.1768929362297058, 0.1368570476770401, -0.21879862248897552, -0.11828216165304184, -0.1299181878566742, -0.1482260674238205, -0.29804378747940063, 0.11849547177553177], [0.3928215801715851, -0.15133865177631378, 0.053457941859960556, -0.0748436227440834, -0.3169998526573181, 0.35568001866340637, -0.18895356357097626, -0.026240937411785126, -0.009079033508896828, 0.23368757963180542, -0.08953940868377686], [0.3227989077568054, 0.18595649302005768, -0.13842350244522095, -0.11762520670890808, -0.028192736208438873, -0.07104039192199707, 0.0041841319762170315, 0.1618606001138687, 0.044609278440475464, 0.1982875019311905, 0.12443374842405319], [0.32481712102890015, -0.25525954365730286, -0.31815269589424133, -0.12873049080371857, -0.05349195748567581, -0.29358866810798645, -0.16025760769844055, 0.3122817575931549, -0.16368937492370605, -0.359555721282959, 0.1725485920906067], [-0.46273767948150635, -0.3554467260837555, 0.20252171158790588, 0.2835303246974945, -0.08668307960033417, -0.04205716401338577, -0.215409055352211, 0.351650595664978, 0.2415791153907776, -0.23245824873447418, -0.040009863674640656], [-0.28067195415496826, 0.1204533502459526, -0.2317991405725479, -0.18000824749469757, -0.22377648949623108, 0.03024142049252987, 0.32237935066223145, 0.24055033922195435, -0.12711988389492035, 0.11622920632362366, 0.22213533520698547], [0.365220308303833, 0.12171990424394608, -0.2902660667896271, -0.07415053993463516, -0.022522130981087685, -0.17781105637550354, -0.15821273624897003, 0.2504376173019409, 0.2477823793888092, -0.13044916093349457, -0.0925973504781723], [-0.19559502601623535, -0.3670867383480072, -0.22507257759571075, 0.2364576756954193, 0.11817345023155212, 0.10270669311285019, -0.2734803855419159, -0.3217085301876068, 0.3064309060573578, 0.2832806408405304, -0.0700550451874733], [0.3303548991680145, -0.3059697151184082, -0.30840376019477844, -0.4691675901412964, -0.16488315165042877, 0.13061252236366272, 0.013730864971876144, 0.07729576528072357, 0.1514388620853424, 0.10542671382427216, -0.0028813614044338465], [0.10092706233263016, 0.1665499061346054, 0.3076924979686737, 0.17244617640972137, -0.18744687736034393, 0.14607597887516022, -0.3175167143344879, -0.2923095226287842, 0.2766503095626831, -0.3033088445663452, 0.049235619604587555], [0.33591967821121216, -0.31402960419654846, -0.3523503839969635, 0.059575751423835754, 0.21683122217655182, -0.38496485352516174, -0.1644485592842102, -0.0035225092433393, -0.15861304104328156, 0.2208343744277954, 0.304648220539093], [-0.24058443307876587, 0.27808430790901184, 0.3217349946498871, 0.06625056266784668, -0.15785866975784302, 0.3937363624572754, -0.28260788321495056, -0.36029374599456787, 0.3605082035064697, -0.2027939110994339, 0.03202255815267563], [-0.18589909374713898, -0.1090492531657219, 0.13114871084690094, -0.12161605805158615, 0.22716619074344635, 0.2600785195827484, -0.33499401807785034, 0.0036873449571430683, 0.31227198243141174, -0.0635497197508812, -0.061936743557453156], [-0.18631523847579956, 0.32446613907814026, -0.22772039473056793, 0.044676799327135086, 0.24204468727111816, 0.31001803278923035, 0.2102191001176834, -0.2573169767856598, 0.009986820630729198, 0.19786112010478973, -0.2497316151857376], [-0.24421502649784088, 0.23036237061023712, -0.182237908244133, -0.15277361869812012, -0.1402605175971985, -0.040148619562387466, -0.2673628628253937, -0.23294661939144135, 0.3038998246192932, -0.32473212480545044, -0.10956880450248718], [-0.11323010921478271, 0.322065144777298, 0.06907005608081818, 0.09895767271518707, 0.13223911821842194, -0.2440626323223114, 0.07553636282682419, 0.29206547141075134, 0.13677974045276642, -0.1559150069952011, 0.03752348572015762], [0.35828450322151184, -0.08197376877069473, 0.4150472581386566, 0.040573202073574066, 0.3031770884990692, 0.06852150708436966, -0.3556804955005646, -0.156246155500412, -0.03466378524899483, 0.22691121697425842, 0.1709003746509552], [0.37325164675712585, 0.12644600868225098, 0.38105112314224243, 0.23870685696601868, -0.13757705688476562, -0.17091484367847443, 0.12264875322580338, -0.07284904271364212, 0.18688684701919556, 0.08629831671714783, -0.0061312150210142136], [-0.21724703907966614, -0.15031582117080688, -0.08905395120382309, 0.04095321148633957, -0.2547972500324249, -0.022360699251294136, -0.31680992245674133, 0.435027152299881, 0.1643340289592743, -0.29334405064582825, 0.29505595564842224], [0.2277892380952835, 0.4102388918399811, -0.08347705006599426, 0.2731543481349945, -0.3343690037727356, -0.13622497022151947, -0.16357657313346863, -0.2945723235607147, 0.10905027389526367, -0.06822658330202103, -0.3239133656024933], [0.17860116064548492, -0.32108035683631897, 0.18564791977405548, -0.21511080861091614, 0.0646573007106781, 0.14401887357234955, 0.06737633794546127, 0.14005593955516815, -0.23681247234344482, -0.3278805911540985, -0.36832430958747864], [-0.25218817591667175, 0.11671188473701477, 0.2694427967071533, -0.24316485226154327, -0.18434502184391022, -0.23139990866184235, 0.0942295715212822, 0.2702535092830658, 0.32114607095718384, 0.30341583490371704, -0.03248465433716774], [0.08038943260908127, 0.3930132985115051, -0.27987876534461975, -0.0145980603992939, -0.17187780141830444, 0.3184877634048462, -0.267523854970932, -0.33266812562942505, 0.0038134967908263206, -0.05155520513653755, 0.059255391359329224], [0.37149959802627563, 0.25444716215133667, 0.22926278412342072, -0.06107320636510849, -0.10682182013988495, 0.014635459519922733, -0.011388406157493591, 0.06501228362321854, 0.004069421906024218, 0.15058845281600952, 0.21000230312347412], [-0.056993041187524796, -0.025361154228448868, 0.209120973944664, -0.00756848556920886, -0.08825166523456573, 0.08188559114933014, -0.20008710026741028, 0.2237311154603958, -0.32235002517700195, 0.12657153606414795, 0.24153508245944977], [-0.13961289823055267, -0.2960003912448883, -0.2243075668811798, -0.1550731509923935, 0.10973604023456573, 0.012121262960135937, 0.3762976825237274, -0.07534260302782059, 0.17395035922527313, 0.1634809374809265, -0.4265233874320984], [-0.10314101725816727, -0.3700478672981262, 0.3789058029651642, 0.25867775082588196, -0.09999515116214752, -0.0403640978038311, 0.08594834059476852, -0.29378873109817505, 0.2007094919681549, 0.34466752409935, 0.17806994915008545], [0.36006271839141846, 0.2822701036930084, 0.3168925642967224, -0.0929306223988533, 0.18348847329616547, 0.180851548910141, -0.1200869083404541, 0.0014837811468169093, -0.24647782742977142, 0.02038697339594364, 0.10359077155590057], [0.05949622765183449, -0.11458476632833481, 0.0908246785402298, 0.12022558599710464, 0.023111283779144287, -0.06788013875484467, -0.10616056621074677, -0.015993213281035423, -0.16179487109184265, -0.29739120602607727, -0.287587434053421], [0.17265120148658752, 0.07305262237787247, 0.17137853801250458, -0.08412034809589386, 0.27609753608703613, -0.29711034893989563, -0.030937762930989265, -0.18661615252494812, 0.2593119144439697, -0.11169089376926422, -0.2637413442134857], [0.35024237632751465, 0.17181457579135895, 0.15177342295646667, 0.16435110569000244, -0.1340973973274231, -0.20637033879756927, -0.10486439615488052, 0.14355896413326263, 0.11969806253910065, 0.15703223645687103, 0.11275598406791687], [-0.3279646933078766, -0.18140386044979095, 0.3477167785167694, 0.10797332972288132, 0.26918357610702515, -0.2601895034313202, -0.26260673999786377, -0.24116533994674683, 0.03623834624886513, -0.2897924780845642, -0.2735362648963928], [0.17847074568271637, 0.2634927034378052, 0.18387474119663239, -0.24610687792301178, -0.09871839731931686, -0.026896335184574127, 0.2611701786518097, -0.01032242365181446, 0.11827010661363602, 0.23522067070007324, 0.1766299456357956], [-0.3258937895298004, 0.13628600537776947, 0.039786964654922485, -0.2606516480445862, -0.05052812770009041, 0.054663583636283875, 0.29114142060279846, 0.2089962363243103, -0.2972714602947235, -0.02401183359324932, 0.2926841378211975], [-0.4196470379829407, -0.025146977975964546, -0.1015399917960167, -0.15428932011127472, -0.15946315228939056, 0.3223555386066437, 0.1514102667570114, -0.14253689348697662, 0.13878029584884644, 0.20167067646980286, -0.11958484351634979], [-0.020030492916703224, 0.12379567325115204, -0.01693554036319256, -0.35871240496635437, 0.0631113052368164, 0.237514927983284, 0.03353206068277359, -0.3066178262233734, 0.021507440134882927, -0.06177232041954994, 0.3130117654800415], [0.10359730571508408, -0.3868175745010376, -0.01359595824033022, -0.17688603699207306, 0.13207082450389862, 0.38937681913375854, -0.32292816042900085, -0.09988448768854141, -0.04961127042770386, -0.017758361995220184, -0.2656494379043579], [0.1607477366924286, 0.29214271903038025, -0.14101235568523407, 0.18585848808288574, 0.13802014291286469, 0.15265749394893646, 0.07965404540300369, 0.029617853462696075, 0.15585382282733917, 0.2690703570842743, 0.060793187469244], [0.3857209086418152, -0.15861590206623077, -0.10035128146409988, 0.042069293558597565, -0.006465065758675337, -0.26233652234077454, -0.20966458320617676, -0.09278737008571625, 0.2970111072063446, -0.24906028807163239, -0.03612624108791351], [-0.068559430539608, -0.15143665671348572, 0.4490679204463959, 0.22543679177761078, -0.18239864706993103, 0.15346816182136536, 0.24058681726455688, -0.12994106113910675, -0.26467496156692505, 0.1577056646347046, 0.11755405366420746], [0.15235105156898499, 0.14928701519966125, -0.11782728135585785, 0.06366012990474701, -0.17144043743610382, -0.2050001621246338, 0.3802300989627838, -0.07241456210613251, -0.2954784333705902, 0.31893619894981384, -0.1566362828016281], [-0.0054544610902667046, 0.3220762610435486, -0.05711323395371437, 0.0871850848197937, 0.2987346351146698, 0.2511279284954071, -0.14881938695907593, -0.18255041539669037, -0.1223965585231781, 0.04065989702939987, 0.2765568196773529], [-0.22355885803699493, -0.18929973244667053, 0.10211168229579926, -0.07674983888864517, 0.276715487241745, 0.19851046800613403, 0.12726323306560516, -0.30624109506607056, 0.35816341638565063, -0.2098313421010971, 0.15632426738739014], [-0.009951949119567871, 0.23000383377075195, 0.013360323384404182, -0.21982169151306152, -0.0628025010228157, 0.1354469358921051, 0.3159550130367279, 0.12289553135633469, 0.04290979728102684, 0.34764790534973145, -0.23250740766525269], [-0.2972259521484375, 0.4329099655151367, 0.1212792694568634, 0.17906665802001953, 0.3155568540096283, -0.24557897448539734, 0.02272374927997589, -0.16368427872657776, -0.2336537390947342, 0.27487751841545105, 0.2402079999446869], [-0.20313142240047455, -0.22051340341567993, -0.3148302435874939, -0.10293484479188919, -0.1757156103849411, -0.059478163719177246, -0.02488415688276291, 0.24967679381370544, 0.1061549112200737, 0.15559238195419312, 0.2647933065891266], [0.09326903522014618, 0.04271809011697769, 0.30061599612236023, -0.4031853675842285, -0.059400610625743866, 0.1626313328742981, -0.33220791816711426, -0.1402556598186493, 0.08080990612506866, -0.21605949103832245, 0.2726225256919861], [0.15299968421459198, -0.21129538118839264, -0.014266681857407093, -0.3978372812271118, 0.10789764672517776, -0.0489664189517498, -0.10460416227579117, -0.31013059616088867, 0.12820160388946533, -0.11373650282621384, -0.06699279695749283], [0.10973724722862244, 0.29688677191734314, -0.31209272146224976, 0.14767076075077057, 0.25443342328071594, 0.3288731575012207, -0.16964291036128998, 0.2222706824541092, -0.0568389929831028, -0.20462867617607117, 0.10098672658205032], [-0.23077845573425293, -0.1369725614786148, -0.005957185290753841, -0.03942762315273285, -0.0009330790489912033, 0.19520696997642517, -0.03559933975338936, -0.19904671609401703, -0.11705131828784943, -0.24930211901664734, 0.004692388698458672], [-0.3868001401424408, 0.2252325862646103, 0.06003841012716293, 0.27237412333488464, -0.26848042011260986, -0.19516344368457794, -0.19604380428791046, -0.022160205990076065, 0.23954370617866516, -0.33288952708244324, 0.13478057086467743], [0.22482900321483612, -0.11812623590230942, 0.3023090660572052, 0.24016644060611725, -0.06300657242536545, 0.32679811120033264, 0.21564491093158722, -0.10736538469791412, -0.24276883900165558, -0.217770516872406, -0.2772126793861389], [0.03582792729139328, 0.3190467357635498, -0.08952310681343079, 0.2995351254940033, -0.012059027329087257, -0.4315647780895233, -0.255601704120636, -0.048535432666540146, -0.04099449887871742, 0.036032021045684814, 0.028954127803444862], [-0.05855390056967735, -0.20449408888816833, -0.1942230761051178, 0.0019019357860088348, 0.0877557247877121, 0.24841037392616272, 0.24640552699565887, -0.009195584803819656, 0.23895950615406036, -0.04156026244163513, 0.0944906696677208], [0.08129333704710007, -0.13423477113246918, -0.2892487347126007, 0.23095941543579102, 0.37573114037513733, 0.11244597285985947, -0.18810638785362244, -0.023785803467035294, -0.34768685698509216, 0.10650228708982468, -0.23076453804969788], [-0.2991916537284851, 0.3987100422382355, 0.10746172815561295, 0.1360592544078827, 0.27736619114875793, -0.4580804705619812, -0.2887102961540222, 0.00925261341035366, -0.07026078552007675, -0.31629282236099243, 0.024433612823486328], [0.3178655803203583, -0.1797463446855545, -0.49626481533050537, -0.2649874687194824, -0.3041693866252899, 0.31744953989982605, 0.058181509375572205, -0.11062116920948029, -0.1863747388124466, 0.03412861004471779, 0.3113502860069275], [0.04221635311841965, -0.1986290067434311, 0.30561015009880066, 0.23392654955387115, 0.30756261944770813, -0.16918952763080597, -0.2363830953836441, 0.25202956795692444, 0.2940584719181061, -0.03294755518436432, 0.29615822434425354], [0.27259916067123413, -0.26222309470176697, 0.44820842146873474, 0.20326663553714752, -0.00010277770343236625, -0.16024763882160187, -0.08455926924943924, -0.10555856674909592, 0.06132427230477333, 0.15434473752975464, 0.1449233591556549], [0.0877874493598938, 0.21286532282829285, 0.02060079202055931, -0.07154469937086105, 0.01749161072075367, 0.15379078686237335, 0.2563912570476532, 0.15485699474811554, 0.16749826073646545, -0.22540517151355743, 0.19451063871383667], [-0.2021844983100891, -0.2785300016403198, 0.22453457117080688, -0.1523677259683609, -0.21523624658584595, -0.15938875079154968, 0.3338090479373932, 0.34577614068984985, 0.06679223477840424, 0.1412913054227829, -0.056289754807949066], [-0.20597270131111145, 0.0666605681180954, 0.0388350673019886, -0.3276614844799042, -0.2851179242134094, 0.019663020968437195, 0.41254809498786926, -0.21244940161705017, 0.2989542782306671, 0.16400566697120667, -0.027191845700144768], [0.2431359887123108, 0.06770513951778412, -0.05533819645643234, 0.06923884153366089, 0.2652115523815155, -0.4008360505104065, -0.14592351019382477, -0.06689634919166565, -0.28151512145996094, 0.29785481095314026, 0.05309614539146423], [-0.2624502182006836, 0.20118141174316406, 0.3238285481929779, -0.3289763033390045, -0.286101758480072, 0.20951536297798157, 0.1395929902791977, 0.18422932922840118, -0.07076012343168259, -0.06729813665151596, -0.024127328768372536], [-0.2425316721200943, 0.4392631947994232, -0.11684458702802658, 0.22460374236106873, -0.14473757147789001, -0.3928244113922119, -0.26426154375076294, 0.20891743898391724, -0.17659196257591248, -0.40232744812965393, -0.18575629591941833], [0.36041921377182007, 0.2100304514169693, -0.10987209528684616, -0.2935976982116699, -0.14870324730873108, 0.21977666020393372, 0.15201818943023682, 0.10205251723527908, 0.18486712872982025, 0.08033674955368042, -0.1871308535337448], [-0.153379887342453, 0.03685667738318443, -0.006875051651149988, 0.3199845552444458, -0.42715632915496826, -0.15456904470920563, 0.032565902918577194, -0.12232967466115952, 0.17352114617824554, -0.2521851360797882, -0.08273426443338394], [0.07767141610383987, 0.1949528455734253, -0.2588472068309784, -0.2158929705619812, -0.07625039666891098, 0.12501534819602966, -0.27756839990615845, -0.06153500825166702, -0.2063760906457901, -0.3160977363586426, 0.06711014360189438], [0.017026806250214577, -0.19506828486919403, -0.18618419766426086, 0.08638239651918411, 0.08726681023836136, -0.0008774838061071932, 0.11433865129947662, -0.22109834849834442, 0.05455866456031799, -0.2710946798324585, 0.036673128604888916], [0.12122518569231033, 0.27074798941612244, -0.11231951415538788, -0.21215257048606873, 0.21379508078098297, -0.2382822483778, -0.38120609521865845, 0.1887432336807251, 0.027038918808102608, 0.19324232637882233, -0.23579910397529602], [0.3818248510360718, 0.12200026214122772, 0.39656880497932434, 0.2858903110027313, 0.23073147237300873, 0.2861173450946808, 0.2914930284023285, -0.13454478979110718, -0.004538900218904018, 0.2014637291431427, -0.06366191059350967], [0.2219085842370987, -0.15386055409908295, 0.11946598440408707, 0.1712745875120163, 0.018325256183743477, 0.0012563326163217425, -0.0003999247564934194, -0.36863964796066284, 0.09494117647409439, -0.16659274697303772, 0.11502640694379807], [0.3931468427181244, -0.18692059814929962, 0.36655938625335693, -0.013870549388229847, 0.14860419929027557, -0.38241636753082275, -0.09358233213424683, -0.06385070830583572, 0.23092089593410492, 0.31216055154800415, -0.1684541553258896], [0.24316340684890747, -0.09301234036684036, 0.08364847302436829, -0.18309099972248077, 0.09257587045431137, -0.08827055990695953, -0.22284819185733795, -0.06813137978315353, -0.3190605044364929, -0.25211289525032043, -0.217861607670784], [0.3951205611228943, 0.21340160071849823, 0.1896318942308426, -0.18868084251880646, -0.13728396594524384, 0.10950520634651184, -0.13575223088264465, 0.21985965967178345, 0.1004546657204628, 0.12841151654720306, 0.19434119760990143], [-0.3915124237537384, 0.04844425246119499, 0.0012746184365823865, 0.06225162744522095, -0.03772180899977684, 0.06721874326467514, 0.275558739900589, 0.31145232915878296, 0.027133570984005928, 0.3119632303714752, -0.22373546659946442], [-0.10987288504838943, -0.35632893443107605, 0.15533654391765594, -0.07455801218748093, -0.0017298802267760038, 0.401491641998291, 0.16329531371593475, -0.05287880450487137, 0.2325986623764038, 0.22737464308738708, 0.34714433550834656], [0.23929297924041748, -0.1448887288570404, -0.3337158262729645, -0.29124632477760315, -0.19025281071662903, 0.27814406156539917, 0.25398796796798706, -0.04776642099022865, 0.054449841380119324, -0.18840265274047852, 0.2714853286743164], [-0.19622205197811127, -0.09093267470598221, 0.1757163107395172, 0.024698499590158463, 0.27877721190452576, -0.09222090989351273, 0.14928488433361053, -0.18224170804023743, 0.2241389900445938, -0.291605681180954, -0.2643052041530609], [0.17217236757278442, 0.062466416507959366, 0.2189178615808487, 0.0010861100163310766, -0.039783693850040436, -0.39006561040878296, 0.2366628646850586, -0.13063783943653107, -0.04752198979258537, 0.23218943178653717, -0.2884064316749573], [-0.22212029993534088, 0.002971481764689088, 0.24966351687908173, -0.19367463886737823, -0.04738182947039604, 0.22797469794750214, 0.17296335101127625, -0.3671320676803589, 0.27495646476745605, 0.005694974679499865, 0.2749992907047272], [0.2655211389064789, -0.26182544231414795, -0.1062491312623024, 0.03865322843194008, -0.057765159755945206, -0.04898378625512123, -0.018694009631872177, -0.21164949238300323, 0.13986772298812866, 0.1698508858680725, 0.25121328234672546], [0.3815082609653473, 0.2820656895637512, 0.36054152250289917, 0.14780586957931519, 0.22343431413173676, -0.1477540135383606, 0.023622585460543633, -0.10576704144477844, -0.015913786366581917, 0.19683098793029785, -0.0353471003472805], [-0.10324979573488235, 0.03493189066648483, -0.31439080834388733, 0.24101442098617554, -0.09700661897659302, -0.25756314396858215, 0.27170321345329285, 0.10806619375944138, -0.14713522791862488, -0.001961920177564025, -0.034765250980854034], [0.12690645456314087, 0.05490538850426674, -0.09273912012577057, 0.20846685767173767, -0.02561144158244133, 0.050505924969911575, -0.13950413465499878, 0.1731220781803131, -0.18573980033397675, -0.022034913301467896, -0.14975599944591522], [0.09103471040725708, -0.2852356731891632, -0.20949800312519073, 0.10069310665130615, -0.14708076417446136, 0.31172141432762146, 0.2505589723587036, 0.3179822862148285, 0.08815481513738632, 0.2615736424922943, 0.16579224169254303], [-0.0475815087556839, -0.26148614287376404, 0.06455803662538528, -0.07592405378818512, 0.20012930035591125, 0.023662516847252846, -0.3594188988208771, -0.09053269773721695, -0.16250205039978027, 0.3402167558670044, 0.11871660500764847], [0.09715691208839417, 0.10550198704004288, -0.1569332778453827, -0.18788963556289673, 0.2669112980365753, -0.20999149978160858, -0.19636695086956024, 0.24177347123622894, -0.28330060839653015, 0.15567633509635925, -0.03003975935280323], [-0.16741402447223663, 0.15509216487407684, 0.12469934672117233, 0.0419779010117054, 0.13645954430103302, 0.35117316246032715, -0.34266453981399536, 0.0437040776014328, -0.055908944457769394, -0.2615615725517273, -0.0031528910622000694], [-0.04941347613930702, -0.3875601291656494, 0.08004137128591537, 0.12099581956863403, -0.4893530309200287, 0.28938692808151245, -0.24500714242458344, -0.23572950065135956, 0.2606659233570099, -0.16536372900009155, -0.1756686270236969], [-0.07670161128044128, 0.23353353142738342, -0.010401698760688305, -0.20695924758911133, -0.3364238739013672, 0.1653023362159729, -0.15818478167057037, -0.16921362280845642, -0.36585989594459534, 0.29087644815444946, 0.10374870896339417], [0.31793418526649475, -0.28968071937561035, -0.45092150568962097, -0.11151313781738281, -0.34076544642448425, 0.1003224179148674, 0.24571627378463745, 0.10578560084104538, 0.0021368253510445356, -0.23822751641273499, -0.22868749499320984], [-0.22419217228889465, -0.06492050737142563, -0.05362975597381592, 0.2007974237203598, 0.12235050648450851, -0.25886932015419006, 0.2187931090593338, 0.0672706663608551, -0.1823972910642624, 0.17576095461845398, -0.08019880950450897], [-0.2257857620716095, -0.06303896754980087, 0.3552282452583313, -0.1720438152551651, 0.31454846262931824, -0.34173545241355896, -0.2688641846179962, -0.0721900537610054, 0.12750932574272156, -0.2545849680900574, 0.10305610299110413], [0.11409223079681396, 0.2823983430862427, 0.3447316884994507, -0.18004456162452698, 0.10219985246658325, -0.12101254612207413, -0.03094378486275673, -0.16117320954799652, 0.14286069571971893, -0.33989793062210083, 0.04918288066983223], [-0.2559424042701721, -0.262624591588974, -0.2770461142063141, 0.4144589304924011, 0.001419013598933816, 0.27535200119018555, 0.22449873387813568, -0.2001839280128479, -0.31246575713157654, -0.22716651856899261, -0.08281514793634415], [0.14228402078151703, 0.3073805570602417, -0.05833548679947853, -0.17086680233478546, 0.22376815974712372, -0.2076312005519867, -0.25842782855033875, -0.12287093698978424, -0.34376323223114014, -0.23875731229782104, -0.06299068033695221], [-0.10814023017883301, -0.08037258684635162, -0.3747691214084625, 0.05569908767938614, 0.31745538115501404, 0.13711421191692352, -0.267365425825119, 0.3273545503616333, -0.2047182321548462, 0.3242024779319763, 0.11491676419973373], [0.021362679079174995, 0.0814158022403717, -0.15424172580242157, -0.04172712564468384, -0.07162711024284363, -0.27632495760917664, 0.25074470043182373, 0.10312004387378693, 0.06666014343500137, 0.12895624339580536, -0.1774749606847763], [-0.10831212252378464, 0.3207394480705261, 0.21356722712516785, 0.08339133113622665, 0.30006659030914307, -0.0755709707736969, -0.4086673855781555, 0.018676932901144028, -0.1568068116903305, -0.2626509964466095, 0.006093552336096764], [-0.024241989478468895, 0.40206846594810486, 0.07775217294692993, -0.2448974996805191, 0.06575465947389603, -0.3413161635398865, 0.2477419674396515, -0.16294674575328827, -0.21160994470119476, 0.38505834341049194, -0.04218246042728424], [-0.14878655970096588, 0.10375567525625229, -0.09931620210409164, -0.20591828227043152, -0.23158758878707886, 0.2975883483886719, -0.1615654081106186, -0.3807066082954407, 0.08678685128688812, 0.12022656947374344, -0.4013029634952545], [0.0871209055185318, 0.11940823495388031, 0.06586474180221558, -0.2984157204627991, 0.18657031655311584, 0.05150147154927254, 0.15372760593891144, -0.29553771018981934, -0.0347476489841938, -0.13489767909049988, -0.04049312323331833], [0.239032581448555, -0.28039124608039856, -0.35093745589256287, -0.2843245267868042, -0.2179771214723587, 0.15790937840938568, 0.15888874232769012, -0.03946744650602341, 0.2816318869590759, -0.08896283805370331, -0.14998401701450348], [0.30401167273521423, -0.030283445492386818, -0.23236402869224548, -0.08723685145378113, 0.34439849853515625, -0.014660474844276905, -0.0402224138379097, 0.21767285466194153, -0.2640967071056366, -0.04933745041489601, -0.09650253504514694], [0.38315701484680176, 0.36564287543296814, -0.17921467125415802, -0.2361893206834793, 0.21390017867088318, -0.152853861451149, 0.3007258474826813, 0.07246800512075424, 0.08205458521842957, -0.0014451596653088927, 0.022245144471526146], [0.2028089016675949, 0.05496472120285034, 0.3473891317844391, -0.13453799486160278, 0.17007844150066376, -0.0009510277886874974, -0.2011183202266693, -0.13167060911655426, 0.07412568479776382, 0.13361720740795135, 0.04382842779159546], [-0.2908182442188263, -0.13739177584648132, 0.2528488337993622, -0.018774114549160004, -0.039575520902872086, -0.11269253492355347, -0.4288932979106903, 0.22526812553405762, -0.1430111676454544, -0.15956160426139832, 0.1328229308128357], [0.30696263909339905, -0.01938694342970848, -0.0052924384362995625, 0.2538822889328003, -0.10951743274927139, -0.2751614451408386, 0.13306698203086853, -0.00981886126101017, 0.11353453993797302, 0.11909569054841995, 0.09367648512125015], [-0.09121542423963547, 0.01461245957762003, -0.17179682850837708, -0.21365562081336975, -0.09801651537418365, -0.0903012678027153, -0.23802638053894043, -0.05455954000353813, 0.29617080092430115, 0.10623577982187271, 0.10764168947935104], [0.30567264556884766, -0.33003607392311096, -0.3546008765697479, -0.2177337408065796, 0.10346312075853348, 0.02314646542072296, 0.338046669960022, 0.13791412115097046, -0.16008470952510834, -0.09509513527154922, -0.042292989790439606], [0.09584740549325943, -0.06136459484696388, 0.14964991807937622, -0.36243271827697754, -0.3236698508262634, 0.3830029368400574, 0.39311617612838745, -0.04082410782575607, 0.16540007293224335, 0.36016637086868286, 0.04971509426832199], [-0.22113068401813507, -0.2541468143463135, -0.22765548527240753, 0.051269497722387314, -0.05530153959989548, 0.22001540660858154, 0.11965736001729965, -0.1515531688928604, -0.11484833806753159, -0.17260687053203583, -0.1699213981628418], [0.17379887402057648, 0.3244690001010895, -0.0783529058098793, 0.09270952641963959, -0.2876695394515991, -0.15280556678771973, -0.3715760409832001, -0.2820521891117096, 0.14662931859493256, -0.2543947994709015, 0.0012616933090612292], [0.2638375461101532, 0.27809152007102966, 0.160501167178154, 0.3143210709095001, 0.16926032304763794, 0.18229612708091736, -0.10929003357887268, 0.18673862516880035, 0.05611313134431839, -0.2784004509449005, -0.03657614067196846], [0.10273461043834686, 0.3008711040019989, 0.08932460099458694, 0.32802024483680725, 0.44530680775642395, -0.43237996101379395, -0.23376858234405518, -0.06364534050226212, -0.0712166503071785, -0.007395523134618998, 0.16190098226070404], [0.30843159556388855, -0.1475251466035843, 0.24475213885307312, 0.11701031774282455, -0.2762490510940552, 0.2635864317417145, 0.22184500098228455, 0.1399403214454651, 0.26983875036239624, -0.19878137111663818, 0.2319461554288864], [0.15986979007720947, 0.06308242678642273, -0.28676989674568176, 0.07929609715938568, -0.30269792675971985, -0.1804446280002594, 0.32743871212005615, -0.007668725214898586, 0.032003358006477356, -0.13177286088466644, -0.042658496648073196], [-0.15517127513885498, -0.03002130798995495, -0.020712245255708694, -0.29347583651542664, 0.29005905985832214, 0.21666684746742249, -0.15788637101650238, 0.1267259120941162, 0.18127405643463135, 0.25658532977104187, -0.03745598718523979], [-0.10902689397335052, 0.477438360452652, 0.2991788983345032, -0.10609037429094315, -0.11028525233268738, 0.10382451117038727, -0.0040741488337516785, 0.28705304861068726, -0.1168237179517746, 0.30205798149108887, -0.1649215668439865], [0.01016488578170538, 0.394953191280365, -0.07952111959457397, 0.2625241279602051, -0.31770819425582886, 0.0022590223234146833, -0.14127328991889954, -0.2069864273071289, 0.1653975546360016, 0.34482842683792114, 0.2968234717845917], [-0.0048779710195958614, 0.30940866470336914, -0.03370144963264465, 0.0394771546125412, 0.29563596844673157, 0.06846340000629425, -0.036638326942920685, -0.3637658953666687, 0.28790482878685, -0.40945976972579956, 0.07443215698003769], [-0.30835938453674316, 0.13996970653533936, -0.04030245169997215, -0.07572778314352036, 0.13392440974712372, -0.016593240201473236, 0.008617582730948925, 0.313538521528244, -0.17956410348415375, 0.17722642421722412, -0.195718914270401], [0.2252396047115326, -0.08396559953689575, -0.3392585813999176, 0.22971147298812866, -0.01268252544105053, -0.25480449199676514, 0.2974398136138916, 0.11298603564500809, -0.18504147231578827, -0.22582906484603882, 0.21334469318389893], [-0.03723720833659172, 0.4065488576889038, -0.28772759437561035, 0.21679146587848663, 0.15887531638145447, 0.36760151386260986, -0.0016726113390177488, -0.09190182387828827, -0.23708583414554596, -0.2308071106672287, 0.2782609462738037], [0.02589106559753418, 0.2608623504638672, -0.0023939828388392925, -0.07035669684410095, 0.2071750909090042, 0.32862141728401184, -0.1463748812675476, -0.34978505969047546, 0.17684078216552734, -0.17272083461284637, 0.03567155823111534], [0.19629216194152832, -0.24170847237110138, 0.1643337607383728, -0.32158541679382324, -0.18033704161643982, 0.35718679428100586, 0.13438580930233002, -0.014859683811664581, 0.2962629795074463, 0.20153260231018066, 0.06343860924243927], [0.28260284662246704, -0.0016647637821733952, 0.16078969836235046, 0.05479501932859421, 0.21607156097888947, -0.2840978503227234, 0.1756616085767746, -0.1489495486021042, -0.205224871635437, 0.05770128592848778, 0.1278064250946045], [0.013913067057728767, -0.25651755928993225, -0.016546333208680153, -0.20433448255062103, 0.18268036842346191, -0.1311882734298706, -0.19892029464244843, 0.024989638477563858, 0.38947853446006775, -0.3420938551425934, -0.4088294208049774], [0.3600202202796936, -0.08028748631477356, -0.20852236449718475, -0.3697643578052521, -0.06875526905059814, -0.07302671670913696, -0.29485079646110535, 0.159161776304245, -0.1902777999639511, -0.07388805598020554, -0.06607537716627121], [0.1418357789516449, 0.28739646077156067, -0.19430196285247803, 0.16336199641227722, -0.3673548996448517, 0.1681310534477234, -0.013294906355440617, -0.1053561270236969, -0.04490826278924942, 0.07115478813648224, 0.18302634358406067], [-0.09416894614696503, -0.29030391573905945, -0.15845714509487152, -0.30513983964920044, 0.14807726442813873, -0.14007261395454407, 0.34324970841407776, -0.30644333362579346, 0.05192416533827782, 0.31082528829574585, 0.3118954300880432], [-0.09757417440414429, -0.22556172311306, -0.32489752769470215, 0.1302635669708252, -0.26191166043281555, -0.3309057056903839, -0.2449185997247696, 0.11612426489591599, 0.18851500749588013, 0.3633406162261963, 0.13278056681156158], [0.2208782434463501, 0.27363795042037964, -0.25225234031677246, 0.11696743965148926, -0.12647521495819092, 0.19665394723415375, -0.23149742186069489, -0.15453915297985077, 0.03343329578638077, -0.04219692572951317, 0.30134040117263794], [-0.24255143105983734, 0.0005136688705533743, -0.45767924189567566, 0.19502726197242737, -0.33620789647102356, 0.07598850131034851, -0.06257819384336472, 0.32990211248397827, 0.18193385004997253, 0.2547009587287903, 0.2740868330001831], [-0.3616711497306824, 0.1700248271226883, 0.3416065573692322, 0.31277352571487427, 0.2732788920402527, -0.1993778496980667, -0.01523433718830347, 0.01155033241957426, 0.06849858909845352, 0.04258555546402931, -0.19871196150779724], [0.02307967096567154, 0.27834126353263855, -0.07496270537376404, 0.1957339644432068, -0.1608494371175766, -0.217116579413414, 0.13088960945606232, -0.12307702749967575, -0.16131296753883362, -0.013249687850475311, -0.3762929439544678], [0.2586250901222229, -0.2283751517534256, -0.22272290289402008, -0.1769450306892395, -0.004480158444494009, -0.1633710265159607, 0.3244226276874542, 0.2491540014743805, 0.21633580327033997, 0.3854164481163025, -0.09234926849603653], [-0.2238592803478241, 0.20655034482479095, -0.047277506440877914, -0.01999051310122013, -0.29428866505622864, -0.16272035241127014, 0.36294257640838623, -0.15191800892353058, 0.03327266126871109, -0.17617586255073547, -0.12818388640880585], [-0.05358022451400757, 0.22905512154102325, 0.03454091399908066, -0.2396254539489746, 0.13726849853992462, 0.12509414553642273, 0.008378304541110992, 0.15412679314613342, -0.32103195786476135, -0.2161342054605484, 0.2210221290588379], [-0.1937694400548935, 0.08669478446245193, -0.3521471917629242, -0.054846957325935364, 0.22435884177684784, 0.08818179368972778, -0.031114162877202034, 0.17396093904972076, -0.023877166211605072, 0.2747643291950226, 0.3026100695133209], [0.3521164059638977, 0.33028414845466614, 0.23277463018894196, 0.30667877197265625, 0.3455304205417633, -0.20296190679073334, -0.1598585695028305, 0.2446998953819275, 0.10888249427080154, -0.1439562290906906, -0.10696596652269363], [-0.4390082061290741, 0.04248899966478348, -0.01309983804821968, -0.09334921091794968, -0.3003654181957245, 0.26371052861213684, 0.17118996381759644, -0.04999899864196777, -0.07509174197912216, -0.06247609481215477, -0.04796160012483597], [-0.09625065326690674, -0.05147069692611694, -0.22412443161010742, 0.33212170004844666, 0.05471440777182579, 0.12316504120826721, -0.16201414167881012, -0.028347954154014587, -0.14599481225013733, -0.2591802775859833, 0.1997688114643097], [0.07583372294902802, 0.13230276107788086, -0.46300235390663147, 0.08834961801767349, 0.36376330256462097, -0.050151266157627106, 0.19216077029705048, 0.225050151348114, -0.3164278566837311, -0.21732701361179352, 0.0649595856666565], [-0.11857662349939346, 0.007957179099321365, 0.3403080999851227, -0.26826268434524536, -0.15550264716148376, 0.21377336978912354, -0.18562667071819305, -0.28399279713630676, -0.2386978417634964, 0.1716793030500412, 0.10181396454572678], [-0.3864454925060272, -0.0396629199385643, 0.25717708468437195, 0.270724892616272, 0.1389024555683136, -0.3744378089904785, -0.21719324588775635, -0.15586231648921967, 0.20253823697566986, -0.3474677801132202, -0.2774465084075928], [-0.07448699325323105, -0.1763470470905304, -0.026763474568724632, -0.3771723210811615, -0.0955279991030693, -0.02806464582681656, 0.1298683136701584, 0.05314631387591362, 0.18126678466796875, 0.07112766057252884, 0.23533101379871368], [-0.12164000421762466, -0.43405652046203613, -0.08556843549013138, -0.18942254781723022, 0.2681429088115692, 0.2751467227935791, -0.159586101770401, 0.0646013543009758, 0.15589606761932373, 0.06117149814963341, -0.03061036393046379], [0.1875254362821579, 0.20917238295078278, 0.32281947135925293, 0.09289989620447159, -0.12662957608699799, 0.2919362187385559, -0.06617280095815659, 0.18340620398521423, 0.04682382196187973, 0.23779889941215515, -0.2618735134601593], [0.31248873472213745, 0.3904629349708557, 0.3464704155921936, -0.2784353494644165, -0.3402559459209442, -0.1686832159757614, 0.0003938886511605233, 0.1622273027896881, 0.21783040463924408, 0.19851991534233093, 0.07677917182445526], [0.33229199051856995, -0.0013805261114612222, 0.08181335777044296, -0.3357142210006714, -0.05572717636823654, 0.15126967430114746, 0.14677859842777252, -0.02939636819064617, 0.24976666271686554, -0.24534673988819122, -0.25899699330329895], [0.1184467077255249, -0.023476921021938324, -0.013418048620223999, -0.0843394473195076, 0.1212754175066948, 0.31348446011543274, -0.3105437457561493, -0.22393807768821716, 0.12179890275001526, -0.16932380199432373, 0.20129188895225525], [0.2750718891620636, 0.33954304456710815, -0.14687475562095642, 0.24141132831573486, 0.3197745084762573, -0.11344591528177261, -0.1463945358991623, -0.020744556561112404, 0.27883896231651306, -0.00936475582420826, -0.015535151585936546], [0.1536744087934494, 0.19869287312030792, 0.22474659979343414, -0.19636821746826172, 0.1448952555656433, 0.14666859805583954, 0.1880316585302353, -0.27600589394569397, -0.26629358530044556, -0.03646586835384369, -0.18046227097511292], [0.27540141344070435, -0.1325445920228958, 0.19203466176986694, -0.3532802164554596, -0.01615053229033947, 0.27405956387519836, 0.1412176936864853, -0.22083915770053864, -0.13690386712551117, -0.12355581670999527, -0.06830240041017532], [0.3982136845588684, -0.18142743408679962, 0.0760645717382431, -0.23456615209579468, 0.3842885196208954, -0.09183213114738464, -0.02207051031291485, -0.05397787317633629, -0.16673801839351654, -0.20329605042934418, -0.2784767746925354], [-0.0681670531630516, -0.30012041330337524, -0.12082038819789886, 0.1208995133638382, -0.12141996622085571, 0.13149768114089966, 0.3214960992336273, -0.2697189748287201, -0.21917547285556793, -0.020940285176038742, 0.19878822565078735], [0.3534884452819824, -0.002738501410931349, 0.07598023116588593, 0.04444575682282448, -0.06566518545150757, -0.501214325428009, 0.021646970883011818, 0.02022024430334568, -0.14717791974544525, -0.2939552068710327, 0.2678467631340027], [0.08144059777259827, -0.30329176783561707, -0.2962805926799774, 0.2926059663295746, -0.19778157770633698, 0.2725302278995514, -0.08587414026260376, 0.22267033159732819, -0.07228010147809982, 0.051749296486377716, -0.07731349021196365], [-0.1562618911266327, -0.018821902573108673, -0.06663735955953598, -0.09386355429887772, 0.1598193496465683, -0.3010529577732086, 0.20772871375083923, -0.014541742391884327, 0.19735322892665863, -0.09741546958684921, -0.4363665282726288], [-0.23378342390060425, -0.2354479879140854, 0.03546541556715965, -0.2653225064277649, 0.20248517394065857, -0.19578677415847778, -0.12221520394086838, 0.021229131147265434, -0.15525174140930176, -0.17647293210029602, -0.01652509719133377], [-0.20423343777656555, -0.13898947834968567, -0.04842137545347214, 0.08393537998199463, -0.2740005552768707, -0.28257426619529724, 0.11150334775447845, -0.22231434285640717, 0.11544251441955566, -0.3368653953075409, -0.2969591021537781], [-0.2715129256248474, -0.29092392325401306, 0.025870852172374725, 0.17849084734916687, 0.15002962946891785, 0.3418026566505432, -0.19976499676704407, 0.16207937896251678, 0.013371217995882034, 0.0841805562376976, 0.2423286736011505], [0.0526137538254261, 0.14461153745651245, 0.33965975046157837, -0.2690795958042145, -0.2920900881290436, 0.3366536498069763, 0.15082967281341553, -0.17106302082538605, -0.007139633875340223, 0.12495565414428711, -0.17515645921230316], [-0.26412591338157654, 0.2650274634361267, -0.22861769795417786, -0.29627907276153564, -0.3956120014190674, 0.27049359679222107, -0.006329737138003111, 0.2124721109867096, -0.052425965666770935, 0.11643490195274353, -0.1663205772638321], [-0.2645048201084137, 0.08929821103811264, 0.40487921237945557, -0.015224812552332878, 0.17744863033294678, 0.1652774065732956, 0.20060069859027863, 0.07569718360900879, -0.15905138850212097, 0.23005099594593048, 0.05586252361536026], [-0.09431437402963638, 0.2076757848262787, -0.12774206697940826, 0.25892168283462524, 0.12916405498981476, 0.13319647312164307, 0.17199905216693878, 0.27404049038887024, -0.1946711540222168, 0.0989907830953598, 0.281660795211792], [0.31415849924087524, 0.1866392195224762, 0.26741620898246765, 0.2522094249725342, 0.2772045135498047, -0.22488188743591309, -0.24935904145240784, -0.03854426369071007, 0.1479654163122177, 0.25837838649749756, 0.09847644716501236], [-0.13066819310188293, -0.2431887686252594, -0.1743723601102829, 0.31552255153656006, -0.13753919303417206, 0.2499338537454605, -0.05766350403428078, -0.14569632709026337, -0.31529977917671204, -0.1969221532344818, -0.2317020744085312], [0.0876920223236084, 0.42510786652565, -0.08621891587972641, -0.4961278736591339, 0.3043872117996216, -0.16985896229743958, 0.19240079820156097, -0.33093777298927307, 0.16144230961799622, -0.11731716990470886, -0.3232710063457489], [0.3028404712677002, 0.36574551463127136, -0.0587446391582489, 0.28765401244163513, -0.2283775508403778, -0.20426365733146667, -0.03193366900086403, -0.36708325147628784, -0.05713209509849548, 0.16736599802970886, -0.026982489973306656], [0.0989718958735466, 0.28143176436424255, 0.3191632926464081, 0.14324133098125458, -0.04805644229054451, 0.2959679663181305, -0.32386335730552673, 0.0707436129450798, 0.26961657404899597, -0.06381939351558685, -0.09383542835712433], [0.2578495740890503, 0.049655988812446594, -0.17273405194282532, 0.009404848329722881, -0.041244979947805405, -0.12129928916692734, 0.16368606686592102, 0.21238066256046295, -0.06254693865776062, -0.0819903314113617, 0.09429121762514114], [-0.280062198638916, -0.01887247897684574, 0.023654958233237267, 0.20850008726119995, -0.06573612242937088, 0.3285675644874573, 0.1709347516298294, 0.012345858849585056, 0.11231382936239243, 0.29672104120254517, 0.28674760460853577], [-0.06790563464164734, 0.20145215094089508, -0.3179503083229065, -0.18609197437763214, 0.311997652053833, -0.3280927836894989, 0.2842726707458496, -0.14976416528224945, 0.20579615235328674, 0.18012303113937378, 0.09169414639472961], [-0.2427661269903183, -0.1842193752527237, 0.2308017909526825, -0.04666324704885483, -0.15945933759212494, -0.09191179275512695, 0.07542973756790161, 0.23867662250995636, 0.008060438558459282, 0.2769540250301361, 0.00600370392203331], [-0.10438746213912964, -0.2574116885662079, 0.056152790784835815, 0.018507981672883034, 0.3531367778778076, -0.007917775772511959, -0.10489978641271591, -0.20735570788383484, 0.19469349086284637, 0.13480305671691895, 0.26793643832206726], [-0.09402346611022949, 0.42489853501319885, -0.18646621704101562, -0.2426563799381256, 0.1636241376399994, -0.2742651402950287, 0.3113228380680084, 0.06804819405078888, 0.12328967452049255, -0.2544988989830017, 0.3179209530353546], [0.04008062183856964, 0.056722644716501236, 0.4009712040424347, 0.11011378467082977, 0.24566178023815155, 0.30742326378822327, -0.18013614416122437, 0.05827685445547104, -0.3385959565639496, 0.04961927607655525, 0.3185473382472992], [0.3919805884361267, 0.4032450318336487, 0.21245259046554565, 0.02218913845717907, -0.016720600426197052, -0.038618747144937515, -0.2602102756500244, 0.12843233346939087, -0.1236417293548584, 0.026731830090284348, -0.2546063959598541], [0.06029612198472023, -0.2040225863456726, 0.4379812479019165, -0.05646788328886032, 0.24617034196853638, -0.3092397451400757, 0.05166931822896004, 0.21274729073047638, 0.25506681203842163, -0.16612888872623444, -0.3169437348842621], [-0.11009542644023895, 0.0581950917840004, 0.10926111042499542, 0.17621256411075592, 0.2297094166278839, -0.36489617824554443, -0.13683512806892395, 0.13684380054473877, -0.024616487324237823, -0.3222006857395172, 0.3602307140827179], [-0.17470373213291168, 0.26140376925468445, 0.16353905200958252, 0.12182475626468658, -0.1181497648358345, -0.1307983696460724, -0.1479015350341797, 0.08718954026699066, -0.17002342641353607, -0.39027929306030273, 0.3117247223854065], [-0.409532755613327, -0.06479313969612122, 0.2316284030675888, 0.08287636190652847, 0.08742073178291321, -0.2655578553676605, 0.3100704848766327, -0.016987400129437447, 0.09951295703649521, -0.06333037465810776, -0.08885519206523895], [-0.02619054540991783, 0.09299064427614212, 0.10988308489322662, -0.09105568379163742, -0.05556844547390938, -0.0470285564661026, 0.17024901509284973, 0.26618844270706177, 0.18232277035713196, -0.19177861511707306, 0.33907148241996765], [0.2521691918373108, -0.12295009940862656, 0.026786504313349724, -0.21301622688770294, -0.019017919898033142, 0.39728599786758423, -0.0804438665509224, -0.27728939056396484, 0.19965043663978577, -0.14309264719486237, 0.20085008442401886], [0.4308844804763794, -0.0788760855793953, 0.11225254833698273, 0.2798708379268646, 0.3082338571548462, -0.4374890923500061, -0.16577066481113434, 0.16358786821365356, -0.17700596153736115, -0.19986598193645477, 0.19155488908290863], [0.021460870280861855, -0.34096628427505493, -0.0924520343542099, 0.23496024310588837, -0.09771186113357544, -0.37447771430015564, 0.29178622364997864, -0.10940119624137878, 0.21775342524051666, -0.30792486667633057, 0.373664528131485], [0.19030515849590302, -0.059299446642398834, -0.2637753188610077, 0.17793646454811096, -0.4039424955844879, 0.32583433389663696, 0.048860881477594376, -0.13965167105197906, 0.16486060619354248, -0.22648145258426666, 0.15328912436962128], [0.3419451415538788, 0.037951141595840454, 0.20849880576133728, 0.3053053319454193, 0.045405637472867966, 0.2760876715183258, -0.11803396791219711, 0.04703092947602272, -0.10466968268156052, -0.3350083827972412, 0.2229202389717102], [0.142190083861351, -0.3933246433734894, 0.4251117706298828, 0.4090491831302643, -0.15115886926651, -0.02481827512383461, -0.06985200941562653, -0.2627320885658264, -0.18145351111888885, 0.004156367387622595, -0.15863525867462158], [-0.025256585329771042, -0.3280606269836426, -0.28285372257232666, 0.3323221802711487, 0.08331560343503952, 0.14826595783233643, -0.22186678647994995, 0.11857208609580994, -0.32539477944374084, -0.04509272798895836, 0.1375911384820938], [0.23742623627185822, -0.13408029079437256, -0.09143708646297455, -0.30319875478744507, -0.185376837849617, 0.13926154375076294, 0.1905522495508194, -0.19605067372322083, -0.1372106820344925, 0.07097268104553223, -0.14964383840560913], [-0.21127349138259888, 0.2975812554359436, 0.31358715891838074, -0.17525683343410492, 0.24185025691986084, 0.24716980755329132, -0.051535412669181824, -0.03795711323618889, 0.07237308472394943, -0.24878713488578796, 0.27168259024620056], [0.25617384910583496, -0.09071231633424759, 0.4183032810688019, 0.34127384424209595, -0.12151946872472763, -0.02248489111661911, 0.27927419543266296, -0.29875776171684265, 0.042949289083480835, -0.24348637461662292, -0.3323303759098053], [0.1382617950439453, -0.21810607612133026, 0.19457772374153137, -0.22467635571956635, 0.26837220788002014, 0.31429892778396606, -0.009202595800161362, 0.24839960038661957, 0.04902523756027222, 0.11549625545740128, -0.14547216892242432], [0.258281409740448, 0.08029963076114655, -0.23766905069351196, 0.032530006021261215, 0.2793864905834198, 0.01689274050295353, -0.26113584637641907, 0.08244460821151733, 0.05342375114560127, -0.060395821928977966, -0.061743203550577164], [-0.07949166744947433, 0.17226940393447876, -0.10028790682554245, 0.1229497641324997, 0.04599050059914589, -0.387460857629776, 0.278524249792099, -0.17726995050907135, -0.11894116550683975, -0.1834031045436859, 0.44014644622802734], [0.23001381754875183, 0.3507671058177948, -0.24658149480819702, -0.31581658124923706, -0.2357398122549057, 0.35008227825164795, 0.07490885257720947, 0.31468647718429565, -0.32379746437072754, 0.21427182853221893, 0.3098827004432678], [-0.3394266963005066, -0.0277489572763443, 0.2886125445365906, 0.1294967085123062, 0.015513285994529724, -0.15694302320480347, -0.13783389329910278, 0.2535429000854492, 0.10900549590587616, 0.14581212401390076, -0.02965237945318222], [-0.2555239796638489, 0.3230336010456085, 0.2838110327720642, -0.06859853863716125, -0.22289258241653442, -0.3263167142868042, -0.008465700782835484, -0.13499543070793152, -0.1553320586681366, 0.2966179847717285, -0.3767235577106476], [0.06700704246759415, -0.040632836520671844, 0.39594489336013794, -0.16470888257026672, -0.27640873193740845, 0.1840563863515854, -0.013504162430763245, -0.3302325904369354, 0.014574273489415646, -0.06303048878908157, -0.12315409630537033], [-0.16841179132461548, -0.17812006175518036, -0.12569499015808105, 0.2981453239917755, 0.32255735993385315, -0.10193154960870743, 0.16503234207630157, 0.1108870580792427, -0.17237073183059692, 0.18966013193130493, -0.3303779065608978], [0.34851303696632385, 0.08957922458648682, 0.27190130949020386, 0.29555627703666687, -0.3056049048900604, 0.11580199003219604, -0.1022503599524498, -0.005765359848737717, -0.0774669498205185, -0.12013502418994904, 0.16172762215137482], [0.2020503282546997, -0.10349654406309128, 0.011265886947512627, -0.09216465055942535, -0.3891650438308716, 0.40473222732543945, -0.11534589529037476, -0.11025750637054443, -0.10896860063076019, -0.24413996934890747, 0.229568749666214], [-0.2504902482032776, -0.27484938502311707, 0.0447111539542675, 0.19318518042564392, -0.03568301349878311, 0.07064517587423325, -0.2171431928873062, 0.1995595395565033, 0.20239272713661194, -0.22112338244915009, 0.08380188047885895], [-0.04761163890361786, 0.40300458669662476, -0.15641628205776215, -0.3604837656021118, 0.09190043061971664, -0.09350152313709259, -0.26396915316581726, 0.23762109875679016, 0.10510311275720596, -0.03533506020903587, -0.22658441960811615], [0.3249492645263672, -0.14149419963359833, -0.1202036514878273, 0.1224353089928627, 0.16046348214149475, -0.21743272244930267, 0.185311421751976, -0.034113358706235886, -0.0062827253714203835, 0.040185000747442245, 0.05668528750538826], [0.30419835448265076, -0.0573158785700798, -0.25969088077545166, -0.11768299341201782, -0.22228652238845825, -0.21207581460475922, 0.2564026117324829, -0.1296813040971756, 0.17608554661273956, -0.16718730330467224, -0.3898376524448395], [-0.21679601073265076, -0.3232446312904358, 0.38565555214881897, -0.12551160156726837, 0.3478212356567383, -0.18055754899978638, 0.041076235473155975, -0.16929422318935394, 0.08128407597541809, -0.3547581434249878, -0.12335634976625443], [0.24517345428466797, -0.2019423395395279, 0.35365572571754456, -0.3265044689178467, 0.09339629113674164, -0.258755087852478, -0.15084682404994965, 0.06184704229235649, -0.3624424934387207, 0.022380435839295387, 0.015095754526555538], [-0.18860898911952972, 0.06524723023176193, 0.10614392161369324, 0.36807382106781006, 0.0662940964102745, -0.06360949575901031, 0.12653428316116333, 0.05571655556559563, -0.2209477424621582, 0.2368464320898056, -0.42007777094841003], [-0.022227637469768524, 0.1309608370065689, 0.20478220283985138, -0.24852047860622406, -0.009328238666057587, 0.056361425668001175, 0.3980880081653595, 0.19331952929496765, 0.13357391953468323, -0.21094295382499695, -0.07953965663909912], [0.3463984727859497, 0.06566937267780304, 0.4083920419216156, 0.0975741520524025, 0.26888707280158997, 0.29113978147506714, -0.09663783758878708, 0.1937435120344162, -0.21103554964065552, -0.2362283319234848, 0.1373416632413864], [-0.2341480553150177, -0.23004016280174255, 0.3469120264053345, -0.36587855219841003, 0.06904091686010361, -0.20781981945037842, 0.01527403388172388, 0.1990516632795334, 0.06384219229221344, -0.268436074256897, -0.23620393872261047], [-0.1111476793885231, 0.019922755658626556, -0.028726156800985336, -0.29466089606285095, -0.06196011230349541, 0.04782787710428238, 0.31487390398979187, -0.054155707359313965, 0.010213013738393784, -0.10349233448505402, 0.35853561758995056], [0.047090064734220505, 0.37286123633384705, 0.040165968239307404, -0.11990557610988617, 0.299918532371521, -0.06740666925907135, 0.15893292427062988, -0.3778456151485443, 0.26581069827079773, -0.18038445711135864, -0.1313270926475525], [0.3361918032169342, -0.2610147297382355, 0.0802626833319664, 0.06420403718948364, -0.2651321589946747, 0.20658820867538452, 0.1537395864725113, 0.2729347348213196, 0.2677757441997528, -0.21121945977210999, -0.23566342890262604], [0.22824539244174957, -0.2237144559621811, -0.27124935388565063, 0.29268917441368103, 0.018499130383133888, 0.1575254648923874, 0.09717406332492828, -0.0122837470844388, 0.08687126636505127, 0.18381401896476746, -0.14682771265506744], [0.08675616979598999, 0.16902241110801697, 0.10839319974184036, 0.3392762839794159, 0.24282263219356537, -0.2666369080543518, -0.3143095076084137, -0.40098845958709717, 0.28844329714775085, -0.2312648445367813, -0.291672021150589], [0.23874680697917938, -0.018903739750385284, 0.15911488234996796, 0.30369803309440613, 0.17081604897975922, -0.25313490629196167, -0.37688136100769043, 0.15402090549468994, -0.05906205624341965, 0.11044809967279434, -0.3176405131816864], [0.3484482169151306, 0.1680988073348999, 0.35938337445259094, 0.2772086262702942, 0.13576005399227142, 0.018400607630610466, -0.2027600258588791, -0.06699220836162567, 0.06458418071269989, 0.1696946769952774, -0.30211642384529114]], "fc1.bias": [0.24106420576572418, -0.1048581600189209, -0.015895038843154907, 0.0035577265080064535, 0.308977872133255, -0.21881982684135437, 0.2603954076766968, 0.3255887031555176, -0.20542536675930023, -0.15884509682655334, -0.06399179995059967, 0.07922083139419556, 0.2405342012643814, 0.14563778042793274, -0.17365078628063202, -0.20011472702026367, 0.19286835193634033, -0.03549579530954361, 0.0906338021159172, -0.10791096836328506, -0.158344566822052, 0.06749732047319412, 0.0716344565153122, 0.06847742199897766, -0.023403620347380638, 0.17870275676250458, 0.15641170740127563, 0.06149691343307495, 0.18569707870483398, 0.17147013545036316, 0.33178821206092834, -0.12480706721544266, 0.019776903092861176, -0.026982421055436134, -0.2309415340423584, 0.034775905311107635, 0.20778463780879974, 0.09866440296173096, 0.08103694021701813, -0.07782790809869766, 0.010143395513296127, 0.00020001994562335312, -0.08982385694980621, -0.06520731002092361, -0.1872829794883728, -0.0008997208788059652, 0.20868408679962158, 0.1812431365251541, 0.27234363555908203, 0.21878185868263245, 0.23546937108039856, -0.19193246960639954, -0.10474429279565811, 0.009419647976756096, 0.15175792574882507, -0.09202364832162857, 0.10582246631383896, 0.10000740736722946, 0.07437727600336075, 0.04498172923922539, 0.13445726037025452, -0.2565213739871979, -0.25684070587158203, 0.04992564395070076, 0.15571705996990204, -0.025325244292616844, 0.2969284951686859, 0.177391916513443, 0.20410211384296417, 0.31388604640960693, -0.164285346865654, 0.15000683069229126, -0.07750331610441208, -0.0014488011365756392, 0.2541458308696747, 0.1969464272260666, 0.09522896260023117, -0.2580825090408325, 0.134883850812912, 0.06457794457674026, 0.16746367514133453, -0.1681109070777893, -0.22120623290538788, -0.25175392627716064, 0.2035076916217804, 0.07343760877847672, 0.22073031961917877, 0.07340763509273529, 0.1668751835823059, 0.034970760345458984, 0.09319533407688141, -0.08691586554050446, 0.21630915999412537, 0.2997692823410034, -0.03181283921003342, 0.09796259552240372, -0.05215523764491081, 0.05253741145133972, 0.165073424577713, 0.232906311750412, 0.2701495587825775, 0.12446253001689911, 0.0012221215292811394, -0.22614681720733643, 0.19728095829486847, 0.0700182318687439, 0.13139131665229797, -0.027870936319231987, 0.26009970903396606, -0.17315556108951569, 0.08018548786640167, 0.14483749866485596, 0.132224440574646, 0.09854939579963684, 0.17695173621177673, -0.05551348254084587, 0.046925805509090424, 0.04440285265445709, -0.19402484595775604, -0.004932583775371313, 0.16783860325813293, 0.1794288456439972, 0.1521216630935669, -0.11009190231561661, 0.22137923538684845, 0.17260964214801788, -0.22664624452590942, 0.0072938366793096066, 0.18670423328876495, -0.1823735386133194, -0.19318948686122894, 0.14811331033706665, 0.1681450605392456, -0.19035126268863678, -0.030884046107530594, -0.28046977519989014, -0.05934516713023186, -0.22876682877540588, 0.1617853343486786, -0.032203175127506256, 0.237009659409523, 0.008613587357103825, 0.15790259838104248, 0.05941283702850342, -0.01845688559114933, -0.10542844980955124, -0.011693567968904972, -0.06693939864635468, 0.2286006063222885, -0.06523977220058441, 0.24552780389785767, 0.13513189554214478, -0.16761913895606995, -0.059408511966466904, -0.20594483613967896, 0.0260489322245121, 0.2733916938304901, -0.15232418477535248, -0.17295533418655396, -0.1190197616815567, 0.2790665030479431, -0.21298424899578094, 0.23698541522026062, -0.031114429235458374, 0.26859062910079956, -0.2308555245399475, -0.04601816087961197, -0.08761613816022873, 0.0020593611989170313, 0.31153619289398193, -0.20532412827014923, 0.11943778395652771, 0.07836176455020905, 0.1516038030385971, -0.23153401911258698, 0.2726736068725586, 0.3161850869655609, -0.059662897139787674, -0.09506293386220932, 0.21006430685520172, 0.17509445548057556, 0.1329670250415802, 0.20356148481369019, 0.11770960688591003, 0.03407690301537514, -0.0488666296005249, -0.2526683509349823, -0.24998103082180023, 0.25811880826950073, 0.2834511399269104, -0.16188722848892212, -0.14851291477680206, 0.151881143450737, 0.07656954973936081, -0.2503231465816498, 0.13116416335105896, 0.05636434629559517, -0.03771030157804489, 0.05157744139432907, -0.035787176340818405, -0.0866982489824295, -0.0006877228734083474, 0.19818298518657684, 0.15446236729621887, -0.20301109552383423, -0.22144822776317596, 0.09416890144348145, 0.19106104969978333, -0.025392135605216026, 0.2743240296840668, -0.1443185955286026, 0.0905442088842392, 0.09160187095403671, -0.05413695052266121, -0.145802840590477, -0.02478882111608982, 0.05592501536011696, 0.17030289769172668, -0.030714893713593483, 0.0781036987900734, -0.20639505982398987, -0.1193227544426918, 0.17736518383026123, 0.05745895951986313, 0.2796066105365753, 0.12083780765533447, 0.297305703163147, 0.20061317086219788, 0.24176454544067383, -0.007125373929738998, -0.10108566284179688, 0.04760602116584778, 0.009659912437200546, -0.07707714289426804, 0.20069915056228638, 0.1970321536064148, 0.008763855323195457, -0.17315608263015747, 0.0821528211236, 0.20347359776496887, -0.054433200508356094, -0.03880235180258751, 0.03229082003235817, -0.11494793742895126, -0.0731121078133583, 0.0029209707863628864, 0.009007424116134644, -0.059996623545885086, 0.043489839881658554, -0.12371478229761124, 0.09897230565547943, 0.008054294623434544, 0.0449126660823822, 0.04940145090222359, 0.11903224140405655, -0.20107883214950562], "fc2.weight": [[-0.09372304379940033, -0.055208876729011536, -0.11047060787677765, 0.09916645288467407, 0.016370171681046486, 0.03843265026807785, -0.07288167625665665, -0.04852893203496933, -0.1438853144645691, 0.04815080389380455, 0.05801895633339882, 0.04893321916460991, -2.1644358639605343e-05, -0.013762134127318859, 0.07735886424779892, -0.0584980770945549, 0.08613934367895126, -0.01727898418903351, 0.055174101144075394, -0.053011078387498856, 0.02669076807796955, 0.0873003825545311, 0.07679871469736099, 0.10604393482208252, -0.06194543465971947, -0.019860291853547096, -0.015293595381081104, 0.034239761531353, 0.07595176994800568, 0.04054977372288704, -0.03992384672164917, 0.09060624241828918, 0.05100376904010773, -0.12284598499536514, 0.17030802369117737, -0.0043398309499025345, -0.012961156666278839, -0.07808215916156769, -0.14345410466194153, 0.07753559201955795, -0.008914809674024582, 0.04695518687367439, 0.022829122841358185, -0.011583120562136173, 0.14692431688308716, 0.02610660530626774, -0.04390738159418106, 0.06558296084403992, -0.04399353265762329, 0.09954408556222916, 0.013753202743828297, 0.010748522356152534, 0.14079774916172028, 0.03148404508829117, -0.05698281154036522, 0.08566895127296448, 0.046420127153396606, -0.019662803038954735, -0.0112691605463624, 0.030614711344242096, 0.10313092172145844, 0.04791621118783951, 0.017659863457083702, 0.13952191174030304, -0.09411100298166275, 0.003739366540685296, -0.10058438032865524, -0.0097885737195611, -0.04008384048938751, -0.01700403541326523, 0.06931470334529877, 0.04206283763051033, 0.014393742196261883, 0.0038746711798012257, -0.05884767696261406, -0.0435919389128685, 0.021200627088546753, 0.07330052554607391, -0.12424958497285843, 0.06954430043697357, 0.039521489292383194, 0.02453097328543663, 0.02197946608066559, 0.05746883898973465, 0.18488091230392456, 0.01357708778232336, -0.05542211979627609, -0.07905136048793793, 0.020074719563126564, 0.08402405679225922, -0.01721094362437725, 0.14305758476257324, 0.024638285860419273, -0.06525417417287827, -0.04658229276537895, 0.06015193834900856, -0.1350734382867813, -0.0017281546024605632, 0.08773044496774673, 0.04723016172647476, 0.08834844082593918, -0.1410764902830124, 0.049415476620197296, 0.16889257729053497, 0.06113007292151451, 0.12985968589782715, -0.1646166890859604, 0.007654634304344654, -0.033706728368997574, 0.10661329329013824, 0.03248276188969612, 0.006618750747293234, 0.016173819079995155, -0.023855306208133698, -0.01833476312458515, 0.051205649971961975, 0.005786701571196318, 0.008267140947282314, 0.018595866858959198, -0.04979792237281799, -0.08448157459497452, 0.01932392828166485, 0.03486267849802971, -0.06959842890501022, 0.15036235749721527, -0.015516703948378563, 0.03200685232877731, 0.060629334300756454, -0.12663370370864868, -0.00443872669711709, -0.11256895959377289, -0.010023427195847034, 0.10532304644584656, 0.05752873048186302, -0.0043555255979299545, -0.02698703110218048, 0.0631573274731636, 0.08484923094511032, 0.07836143672466278, 0.066650390625, -0.03461103513836861, 0.02530069090425968, -0.013228767551481724, 0.10511840134859085, 0.03141258284449577, 0.056943610310554504, 0.040764402598142624, 0.15316128730773926, -0.007833452895283699, 0.03768093138933182, -0.038846563547849655, -0.07339680194854736, -0.060090821236371994, 0.05787716433405876, 0.029050420969724655, -0.06460428237915039, -0.01695471629500389, -0.012788691557943821, 0.09666018187999725, 0.05871729552745819, 0.04734790697693825, -0.11880216002464294, 0.049955103546381, 0.008923137560486794, -0.07740816473960876, -0.07887085527181625, 0.02708681859076023, -0.03964350372552872, 0.06845397502183914, 0.1414634734392166, 0.07544903457164764, -0.035555094480514526, -0.08917130529880524, -0.060040418058633804, 0.110469289124012, -0.025553837418556213, -0.0533677414059639, -0.03722100704908371, 0.10637747496366501, -0.020739980041980743, -0.06665115803480148, 0.00599307706579566, 0.03249801695346832, 0.046423718333244324, 0.1432526558637619, 0.049424927681684494, 0.04939639940857887, -0.019863935187458992, 0.0918547585606575, -0.007282787002623081, -0.11155451089143753, -0.09120696038007736, 0.029050188139081, -0.0850452408194542, 0.03216651827096939, 0.06599386036396027, -0.08206610381603241, -0.01453876681625843, -0.05538930743932724, 0.0041296579875051975, -0.11501696705818176, 0.1020180732011795, -0.05005543306469917, -0.008040955290198326, 0.026420651003718376, 0.14531280100345612, 0.04598286747932434, -0.008343215100467205, -0.040242500603199005, -0.08455029875040054, 0.010161049664020538, -0.0995226576924324, 0.02255314402282238, 0.08237677067518234, -0.10902902483940125, -0.08364555239677429, -0.04178382083773613, -0.07626763731241226, -0.08133582025766373, 0.029550818726420403, -0.11711611598730087, -0.09467708319425583, 0.059878598898649216, 0.036226190626621246, 0.034203384071588516, -0.11127271503210068, 0.09797531366348267, -0.01241218950599432, 0.08077723532915115, -0.005628623068332672, 0.04038218781352043, -0.09702493995428085, 0.01096035074442625, 0.07463227957487106, 0.015253393910825253, 0.12151441723108292, -0.029031557962298393, 0.09672033786773682, 0.07157142460346222, 0.0141752315685153, -0.04762521758675575, 0.09427212178707123, 0.12420348823070526, -0.10213083773851395, -0.16715405881404877, -0.04177667945623398, -0.03575779125094414, 0.08471933007240295, -0.041519273072481155, -0.0935041531920433, 0.0872471034526825, 0.0880986675620079, 0.09125381708145142, -0.0026763358619064093, 0.11068761348724365, 0.14848202466964722], [-0.1180189773440361, -0.029009174555540085, 0.09495555609464645, 0.0961788222193718, -0.11146072298288345, 0.030999405309557915, -0.04590915888547897, -0.11810492724180222, 9.07064531929791e-05, -0.045475319027900696, 0.05275595560669899, 0.0034333926159888506, -0.03507712110877037, -0.054312869906425476, -0.09877236932516098, -0.05788335204124451, 0.0755145475268364, -0.01855437643826008, 0.003932592459022999, -0.03816118463873863, -0.21191847324371338, 0.013378551229834557, -0.02271406538784504, -0.08918275684118271, 0.06338868290185928, 0.04478203505277634, -0.025886718183755875, 0.01052574347704649, -0.06415998190641403, 0.03676292300224304, 0.07424575835466385, 0.06286878883838654, 0.011715192347764969, -0.03896010294556618, 0.08638836443424225, 0.02508929744362831, 0.01823906973004341, 0.021853378042578697, 0.05227699503302574, 0.0848846286535263, -0.1150548905134201, 0.1507769078016281, -0.06783849745988846, -0.07299720495939255, -0.07248680293560028, 0.0985528826713562, -0.040018532425165176, -0.03001999668776989, -0.049942079931497574, -0.09294840693473816, 0.04040095582604408, -0.0002481000847183168, -0.09687435626983643, 0.025809014216065407, 0.04978962987661362, -0.11610768735408783, 0.03908377140760422, 0.0435769148170948, 0.027498774230480194, -0.026550594717264175, 0.029624128714203835, 0.04300760477781296, -0.050879377871751785, 0.07079271972179413, -0.16472673416137695, 0.11837516725063324, 0.07009187340736389, -0.09895458817481995, -0.06061137467622757, -0.11427567899227142, -0.015791544690728188, -0.026990896090865135, -0.12043014913797379, 0.027231954038143158, -0.12599770724773407, -0.07350943237543106, 0.06300198286771774, 0.11780554056167603, -0.02275993674993515, 0.04435250908136368, 0.23222509026527405, 0.037981726229190826, 0.02370203286409378, -0.08876427263021469, 0.03386778384447098, -0.03551342710852623, -0.0348888598382473, -0.12787166237831116, 0.05196910724043846, 0.25694745779037476, -0.033576250076293945, -0.04225033149123192, -0.014626363292336464, 0.10057291388511658, 0.002496266970410943, -0.008248141035437584, -0.18483015894889832, -0.09045841544866562, 0.13646499812602997, -0.1000581607222557, 0.06640113145112991, -0.024160493165254593, -0.006111801601946354, 0.06403262913227081, -0.03390461578965187, -0.002648431109264493, -0.11104042828083038, 0.12317438423633575, 0.0233271736651659, 0.015352677553892136, 0.15331314504146576, -0.12727612257003784, 0.11904416233301163, -0.02267388626933098, 0.026576125994324684, 0.025843936949968338, 0.05980050563812256, 0.006535327062010765, 0.08063971251249313, -0.08754955977201462, 0.06972774863243103, 0.011425635777413845, -0.018864238634705544, -0.12190423905849457, 0.09917736053466797, 0.08102504163980484, -0.06254065781831741, -0.16054083406925201, -0.08948267996311188, -0.10028593242168427, -0.11554307490587234, 0.08071260154247284, -0.054098621010780334, 0.1552613079547882, -0.09294341504573822, -0.014649622142314911, 0.09163933992385864, -0.025740157812833786, 0.10141413658857346, -0.14543741941452026, 0.011469864286482334, 0.01473479624837637, -0.014811061322689056, 0.0612005814909935, 0.056757986545562744, -0.05307939648628235, -0.04226624593138695, -0.03813576698303223, -0.10636072605848312, 0.16689912974834442, 0.11080493032932281, -0.035048119723796844, -0.006133205723017454, -0.05359482392668724, -0.0877242386341095, -0.025864161550998688, 0.09183920174837112, 0.034943997859954834, -0.01739553175866604, 0.13879463076591492, -0.025093989446759224, -0.05988157168030739, -1.757378049660474e-05, 0.0006581830093637109, 0.0242097657173872, -0.05895717442035675, -0.07064540684223175, -0.03064434975385666, -0.018975703045725822, 0.012573878280818462, 0.11955985426902771, -0.101746566593647, 0.02255590818822384, -0.06819072365760803, -0.07840067893266678, -0.10480795055627823, -0.10067620873451233, 0.022866586223244667, -0.2268562763929367, -0.0346517488360405, 0.08317632973194122, -0.06762272119522095, 0.021267518401145935, 0.09607171267271042, 0.24499690532684326, -0.04181576892733574, -0.0659639835357666, 0.08502820134162903, 0.06279900670051575, -0.051388610154390335, 0.11935372650623322, -0.06526166945695877, 0.10081253200769424, 0.02878975123167038, -0.029419533908367157, -0.05717329680919647, 0.022950615733861923, -0.025439295917749405, 0.014393067918717861, -0.026460671797394753, 0.06854002177715302, 0.01971421018242836, -0.1769580841064453, -0.017623387277126312, -0.04826894775032997, 0.06777188181877136, 0.08594941347837448, -0.0675114244222641, 0.02391541749238968, 0.050672296434640884, -0.006937550846487284, -0.07705844193696976, -0.002199612557888031, 0.0982033833861351, -0.10994177311658859, -0.055144477635622025, -0.04541090503334999, -0.0033053311053663492, -0.01352585107088089, 0.05482114106416702, -0.1388656198978424, 0.0008386692497879267, 0.054332662373781204, 0.08261771500110626, -0.08735021203756332, -0.01503764372318983, 0.17185640335083008, -0.09953446686267853, 0.051671575754880905, 0.0748642310500145, -0.10289787501096725, -0.17116162180900574, 0.02485201507806778, 0.053135983645915985, 0.009437176398932934, -0.13949038088321686, -0.013123266398906708, 0.1325802505016327, 0.12511828541755676, 0.017039084807038307, -0.025289298966526985, 0.015626946464180946, 0.15495695173740387, -0.2662355303764343, -0.16776953637599945, 0.08768344670534134, 0.0036802198737859726, 0.04949573799967766, -0.10801038146018982, -0.04500994086265564, -0.06120721995830536, 0.15958073735237122, 0.0006837958353571594, -0.025678662583231926, 0.009022249840199947, -0.08918073773384094], [-0.016755199059844017, 0.03666313365101814, -0.02950027957558632, -0.09647276252508163, 0.056371722370386124, -0.034124068915843964, 0.03937849774956703, 0.02653149701654911, 0.05506876856088638, 0.04305221885442734, 0.04844936728477478, -0.04342341050505638, 0.049387864768505096, -0.02969503216445446, -0.06526245176792145, -0.028570495545864105, -0.051640868186950684, 0.06968829780817032, -0.051192644983530045, 0.04784558713436127, -0.0857665166258812, 0.032202355563640594, 0.13147419691085815, -0.061296943575143814, 0.04525979235768318, 0.004114057403057814, 0.033875446766614914, 0.011121461167931557, -0.031560588628053665, -0.05832890793681145, -0.020950166508555412, -0.12579093873500824, 0.030081048607826233, -0.09478992223739624, 0.09861267358064651, -0.007796631194651127, -0.02890961430966854, 0.04716533422470093, -0.007022733334451914, -0.026766685768961906, 0.04417486861348152, -0.12893928587436676, -0.03740467503666878, -0.04978589341044426, -0.08804889023303986, 0.011202694848179817, 0.09338025003671646, 0.018546052277088165, 0.02753845602273941, -0.005739265587180853, -0.02724548429250717, 0.05094727501273155, -0.17349377274513245, -0.06292451173067093, -0.03479359298944473, 0.027393611147999763, 0.01929510198533535, -0.006241773255169392, -0.026458336040377617, 0.07541002333164215, 0.04777992516756058, -0.005174852907657623, -0.004548858385533094, -0.04452831670641899, 0.0020878263749182224, -0.020076507702469826, 0.06059104949235916, 0.028783883899450302, 0.08435774594545364, 0.05474550276994705, 0.04249702766537666, 0.012074818834662437, 0.19352281093597412, -0.09270060807466507, 0.10388427972793579, 0.05006867274641991, 0.06723205745220184, -0.1092337816953659, 0.00274630612693727, 0.00498843751847744, -0.1322363317012787, -0.03306971862912178, 0.014085270464420319, -0.15612925589084625, 0.03927519544959068, 0.03669295459985733, -0.008009076118469238, 0.04774743691086769, -0.005034003406763077, -0.018404845148324966, 0.03753110393881798, 0.03539397194981575, 0.03383501619100571, 0.020141443237662315, 0.08016207814216614, 0.010141697712242603, 0.15396063029766083, -0.09426990151405334, -0.0501735620200634, 0.05340525880455971, 0.03107943944633007, 0.055622391402721405, -0.013119138777256012, -0.06353138387203217, -0.03852952644228935, -0.0423770472407341, 0.018914254382252693, 0.03427204117178917, 0.04866500571370125, 0.044016581028699875, 0.03283201903104782, -0.00570955965667963, 0.03789021074771881, -0.0306779146194458, -0.02269240841269493, 0.034548740833997726, -0.05183500796556473, 0.05707862600684166, -0.07768749445676804, 0.012089783325791359, 0.006736832670867443, -0.0032046232372522354, 0.06565571576356888, 0.2111382782459259, 0.011309479363262653, 0.02418443374335766, -0.14969007670879364, -0.006866914220154285, 0.1882891207933426, 0.05792494863271713, -0.04385088011622429, -0.004713407251983881, -0.06422234326601028, 0.05935053527355194, 0.17081604897975922, 0.0694672241806984, -0.08031932264566422, -0.05899963900446892, 0.05494292825460434, 0.037603188306093216, -0.03021029569208622, -0.05274270847439766, -0.000583107874263078, -0.06919152289628983, -0.027937233448028564, 0.019603125751018524, -0.10699208825826645, -0.051057253032922745, -0.040104471147060394, -0.012623194605112076, 0.025731921195983887, -0.019987624138593674, -0.010535839945077896, 6.0363403463270515e-05, 0.04489913955330849, 0.03660689294338226, -0.05214284360408783, -0.03471924737095833, -0.03468684107065201, -0.021522749215364456, 0.04894467070698738, 0.016101783141493797, -0.01527377124875784, 0.05519411340355873, -0.0051873670890927315, 0.03923933953046799, -0.0008494675857946277, 0.025497030466794968, 0.053681325167417526, -0.014197232201695442, -0.028477992862462997, 0.06704627722501755, 0.07829197496175766, -0.027409067377448082, 0.06487822532653809, 0.09906809031963348, -0.013711868785321712, -0.029817109927535057, 0.3484306335449219, -0.0379301980137825, -0.0005109583726152778, 0.011130034923553467, 0.027751710265874863, -0.0406465008854866, -0.15670213103294373, 0.04353814199566841, 0.06287646293640137, 0.014722459018230438, -0.055807843804359436, -0.05944144353270531, -0.09846318513154984, 0.11641039699316025, 0.017598256468772888, 0.10753964632749557, 0.022887378931045532, -0.0909276157617569, -0.0472743920981884, 0.09506905823945999, 0.019536443054676056, 0.08699062466621399, 0.05598597601056099, -0.01008270401507616, 0.06705126911401749, 0.09872465580701828, -0.15104982256889343, -0.15356658399105072, 0.04367033764719963, 0.07904670387506485, -0.013555546291172504, -0.05244923010468483, -0.0019322888692840934, 0.07395108789205551, -0.021314263343811035, 0.11833218485116959, -0.015221246518194675, -0.029552409425377846, 0.009496641345322132, 0.02954898215830326, 0.07457709312438965, -0.013265815563499928, 0.031185979023575783, 0.06175517663359642, 0.06259158998727798, -0.026997994631528854, 0.12296751141548157, 0.08062519878149033, 0.007601275574415922, 0.04816463962197304, -0.009428631514310837, -0.014839854091405869, 0.10990259051322937, 0.054172493517398834, 0.06987738609313965, 0.015628330409526825, 0.08482398837804794, 0.0012829061597585678, 0.042443644255399704, -0.033875856548547745, 0.0874858871102333, 0.02926347404718399, 0.21587400138378143, -0.05820303410291672, -0.03456224873661995, -0.01750793866813183, -0.06615541130304337, 0.04010976850986481, -0.001454301062040031, 0.022916631773114204, -0.012008722871541977, 0.1270260512828827, 0.017697874456644058, -0.12791356444358826, -0.03882512450218201, -0.06599508970975876, 0.01814093068242073, 0.07213523983955383], [0.029303034767508507, 0.060799214988946915, -0.001265202765353024, 0.01418605912476778, 0.029576344415545464, -0.11292983591556549, -0.057044342160224915, -0.1375003159046173, 0.04941791296005249, 0.1028839647769928, -0.1528043895959854, -0.07725884020328522, 0.04318263381719589, 0.041282616555690765, 0.10873816162347794, 0.028241008520126343, -0.053491707891225815, -0.18738748133182526, -0.026492130011320114, -0.001839308300986886, 0.11444807052612305, -0.01069433894008398, 0.06028154119849205, 0.24427935481071472, 0.012944379821419716, 0.08402939885854721, 0.014807870611548424, 0.10656146705150604, 0.08820068091154099, 0.01528253499418497, -0.19387699663639069, 0.011043183505535126, 0.025598620995879173, -0.0693584680557251, -0.09093758463859558, 0.06954064220190048, 0.09242792427539825, 0.03085198812186718, -0.059559471905231476, 0.006618136540055275, -0.11834394931793213, -0.021544374525547028, 0.05896322801709175, 0.14497928321361542, 0.08189672231674194, -0.07542046904563904, -0.02056925557553768, 0.09020143747329712, -0.021012727171182632, 0.019461756572127342, 0.044291429221630096, -0.0364365391433239, 0.188573956489563, 0.017696648836135864, -0.08308131247758865, 0.05725163221359253, 0.10204693675041199, -0.017153950408101082, -0.0873195230960846, 0.014749089255928993, 0.02055806666612625, 0.02272374927997589, -0.010937604121863842, 0.0883212685585022, 0.06125565618276596, 0.051171235740184784, 0.03187940642237663, -0.15346214175224304, -0.057227879762649536, -0.039442889392375946, -0.021404298022389412, 0.09801425039768219, 0.10073374211788177, -0.010795306414365768, 0.05077998712658882, -0.0595194473862648, -0.12862221896648407, 0.09561695903539658, -0.018109630793333054, -0.04053784906864166, 0.03677697852253914, -0.014008382335305214, -0.024698272347450256, 0.11485083401203156, -0.05250553786754608, 0.05517667159438133, 0.022760506719350815, -0.13762736320495605, 0.10696671158075333, -0.00781276449561119, 0.012718220241367817, 0.04196822643280029, -0.039267778396606445, -0.07999364286661148, -0.1537574678659439, 0.018320690840482712, -0.024001309648156166, 0.021926073357462883, -0.05137701332569122, 0.02456502988934517, 0.03434547409415245, 0.01590828038752079, -0.031489066779613495, 0.029011856764554977, 0.050429567694664, 0.06564980000257492, 0.05344204604625702, 0.03667460009455681, -0.1324824094772339, -0.1560644805431366, -0.10224814713001251, -0.0039525385946035385, -0.05124890059232712, -0.10112161934375763, 0.023552382364869118, 0.14753255248069763, -0.03328670561313629, -0.0816919133067131, -0.08512397110462189, 0.0005985367461107671, -0.06279873847961426, -0.0530458502471447, -0.020046869292855263, -0.05462902784347534, -0.10220404714345932, -0.0304547268897295, 0.13210543990135193, 0.15597346425056458, -0.09121346473693848, 0.08048427104949951, -0.10739738494157791, -0.010861878283321857, 0.11479640007019043, -0.06816080212593079, -0.06420829892158508, -0.05874050036072731, -0.03778023645281792, 0.06809060275554657, -0.008064163848757744, 0.0010471268324181437, 0.05228900909423828, 0.12265203148126602, -0.00886879675090313, 0.07089538127183914, -0.1135096475481987, -0.05277828127145767, 0.10602738708257675, 0.1329406499862671, 0.09769746661186218, -0.061630453914403915, 2.8111098799854517e-05, -0.08860676735639572, -0.08965512365102768, 0.14449310302734375, 0.04629971832036972, -0.1380082368850708, 0.0648692175745964, 0.171874538064003, 0.029586022719740868, -0.01936367340385914, 0.1177138164639473, -0.0896785631775856, -0.029819102957844734, 0.07422637194395065, -0.12954513728618622, -0.02960832789540291, 0.08342613279819489, -0.058168668299913406, -0.04825767129659653, -0.017907146364450455, 0.04573828727006912, 0.06990133970975876, 0.07307101786136627, -0.029231537133455276, 0.10164085775613785, -0.09949774295091629, 0.010961081832647324, 0.025606965646147728, -0.015903890132904053, 0.03487056493759155, 0.022833960130810738, -0.03554436191916466, -0.06608530133962631, 0.031397007405757904, -0.029719997197389603, -0.0022084650117903948, 0.06934227049350739, -0.03575602173805237, 0.033493705093860626, 0.0386076346039772, 0.026032419875264168, 0.17168430984020233, -0.040164150297641754, -0.06429419666528702, -0.02328459918498993, 0.09973304718732834, -0.08674231171607971, -0.016635820269584656, -0.12343168258666992, -0.04043484851717949, 0.01680127903819084, 0.1360688954591751, -0.06981204450130463, -0.11422272026538849, 0.1392146348953247, 0.12813621759414673, 0.02029232680797577, -0.01632464863359928, 0.010742973536252975, -0.021408194676041603, -0.00326779717579484, -0.005878586322069168, 0.0009394331136718392, -0.18982569873332977, 0.1464131474494934, 0.13706570863723755, 0.0569876991212368, 0.012264280579984188, 0.09813541918992996, -0.07833214104175568, 0.13573074340820312, -0.07806678861379623, -0.05921751633286476, 0.002583055291324854, 0.06378177553415298, -0.05205175653100014, 0.0013678115792572498, 0.04915904626250267, 0.0614914707839489, 0.014176417142152786, -0.003830577712506056, 0.08422495424747467, -0.017811477184295654, 0.021122390404343605, -0.03792720288038254, -0.0014409514842554927, -0.14591433107852936, 0.09478513896465302, -0.0655791312456131, 0.02894931100308895, -0.18771016597747803, 0.04259761795401573, 0.009328127838671207, 0.09308595210313797, 0.1680765151977539, -0.17380951344966888, -0.07204187661409378, 0.10110540688037872, 0.2038445919752121, -0.045252103358507156, -0.00461827777326107, -0.05035354569554329, -0.09274837374687195, 0.13589973747730255, -0.04617782682180405, 0.08662784844636917], [0.0070878323167562485, 0.06694860756397247, -0.11143484711647034, 0.0063941297121346, 0.03570575267076492, 0.00018278253264725208, 0.018221640959382057, 0.2233833521604538, -0.029933491721749306, 0.0008004321716725826, -0.01958787441253662, -0.04707563668489456, 0.004647702444344759, 0.03599311783909798, -0.1737942397594452, -0.026283368468284607, -0.026311159133911133, 0.05776163563132286, 0.020691638812422752, 0.019478807225823402, 0.12747879326343536, 0.010314663872122765, 0.03168781101703644, 0.08856073021888733, 0.029367124661803246, 0.02870391122996807, -0.0035395538434386253, 0.022095374763011932, 0.04339200258255005, -0.12264765799045563, 0.028791135177016258, -0.11395126581192017, 0.018774094060063362, -0.14902976155281067, -0.03798924759030342, -0.03247594088315964, 0.04184361919760704, -0.0700138509273529, -0.011429541744291782, -0.04039095342159271, 0.03823265805840492, -0.14752726256847382, 0.08475546538829803, 0.15446454286575317, -0.014010625891387463, -0.06798817962408066, 0.03819062560796738, -0.025051746517419815, -0.02175593003630638, 0.02915249392390251, 0.06274938583374023, -0.10798931866884232, 0.04775664582848549, 0.12731964886188507, -0.05866948515176773, -0.004632138181477785, -0.024092115461826324, 0.05741175636649132, -0.016827989369630814, 0.12567315995693207, 0.0033137525897473097, 0.043820351362228394, -0.06719403713941574, 0.017872827127575874, -0.20973429083824158, 0.021862799301743507, 0.03994610160589218, 0.06781773269176483, 0.0004773760156240314, 0.0005251846741884947, -0.019193118438124657, 0.05647418648004532, 0.2623724043369293, 0.01370223704725504, 0.04161340370774269, -0.011556153185665607, 0.09011539816856384, -0.19689464569091797, 0.01073041744530201, -0.023003827780485153, -0.1024230420589447, -0.04227052256464958, -0.05599721521139145, -0.037944141775369644, 0.053651340305805206, -0.07400421798229218, 0.07934118807315826, 0.012068575248122215, -0.21962140500545502, -0.1703340858221054, -0.007214130833745003, 0.14872026443481445, -0.034078892320394516, 0.02037951350212097, 0.12682758271694183, 0.058435577899217606, 0.2713969647884369, -0.15847882628440857, -0.03626587986946106, 0.06983117014169693, 0.03689805418252945, 0.12070608884096146, 0.0764988362789154, 0.07385560125112534, 0.015383986756205559, 0.007503249682486057, 0.18992948532104492, 0.04499693587422371, 0.05315515026450157, -0.02740638516843319, -0.047569602727890015, -0.045732464641332626, 0.025009270757436752, 0.049739688634872437, 0.07863599061965942, 0.08140760660171509, -0.030754538252949715, 0.051362816244363785, -0.027508091181516647, 0.11345425993204117, 0.02921247109770775, -0.04277777671813965, 0.1501673012971878, 0.2359115034341812, -0.11123833805322647, -0.027232902124524117, -0.07436956465244293, -0.043860647827386856, 0.037233754992485046, 0.1060100868344307, 0.04000280052423477, 0.03609086945652962, -0.09718260914087296, -0.15967687964439392, 0.21665534377098083, 0.07126845419406891, -0.08961988240480423, 0.08000844717025757, 0.006276833824813366, 0.05996650457382202, -0.006161166355013847, -0.015700945630669594, 0.0031904326751828194, 0.03249797970056534, -0.021349621936678886, -0.025516197085380554, 0.01956082321703434, -0.014068339951336384, 0.04860188066959381, 0.024927008897066116, -0.021114680916070938, 0.08355363458395004, 0.06377679854631424, 0.03212042897939682, -0.09627595543861389, -0.035746097564697266, -0.05099239945411682, -0.03259303793311119, -0.06689456850290298, -0.03341032192111015, 0.07592873275279999, -0.19562777876853943, -0.02335355244576931, 0.0422574020922184, 0.03269016742706299, 0.03223668411374092, 0.06647798418998718, -0.05430172383785248, -0.0873701423406601, -0.018771881237626076, -0.07028334587812424, 0.11653567105531693, 0.12993736565113068, 0.03801732137799263, 0.04868623986840248, 0.15766310691833496, 0.03308844566345215, 0.03075755015015602, 0.3253936171531677, -0.0793764665722847, -0.03399724140763283, -0.046659644693136215, -0.02414434589445591, 0.01780310831964016, -0.1964508295059204, 0.020941421389579773, 0.10036170482635498, -0.10001809895038605, -0.04776066914200783, 0.03243301436305046, 0.016453972086310387, 0.22903591394424438, -0.034181516617536545, -0.0026133195497095585, -0.007232204079627991, 0.09735652804374695, 0.03338833525776863, 0.04970747232437134, 0.036380741745233536, 0.09770706295967102, -0.02470099739730358, -0.003752727760002017, 0.020874736830592155, -0.07974337786436081, 0.02661161497235298, 0.057222962379455566, 0.02116153948009014, 0.02624930813908577, -0.02288602478802204, -0.04115981608629227, -0.09283241629600525, 0.013630601577460766, 0.03823433443903923, 0.12265825271606445, 0.003480701008811593, -0.02433284930884838, -0.020687751471996307, 0.009952801279723644, 0.08987197279930115, 0.03527186065912247, 0.14236901700496674, 0.09408216923475266, -0.00970639567822218, 0.07873471081256866, 0.09991801530122757, -0.07106263935565948, -0.023651398718357086, 0.02449725940823555, -0.0321357324719429, -0.011018306948244572, 0.12691468000411987, 0.07864703238010406, 0.06965812295675278, -0.028199167922139168, 0.01768488809466362, 0.17607355117797852, -0.02685530111193657, 0.0341758131980896, 0.06098083779215813, 0.018240448087453842, 0.1247587651014328, 0.08563768863677979, -0.05129525437951088, -0.17679601907730103, 0.024869976565241814, -0.07084701210260391, 0.10238073766231537, 0.09006133675575256, 0.016178881749510765, 0.0769953727722168, -0.016625501215457916, -0.06321609020233154, 0.05567563697695732, -0.028571195900440216, 0.03999153524637222, 0.13202999532222748], [-0.07525492459535599, 0.11301907896995544, -0.05791808292269707, 0.0009130045073106885, 0.09204038977622986, 0.1192670688033104, 0.008592772297561169, -0.03971307724714279, -0.1476895660161972, 0.1135658398270607, 0.03150712698698044, 0.06575462967157364, 0.04623904079198837, 0.06981328874826431, -0.18236036598682404, 0.021986715495586395, -0.061590928584337234, 0.02461506985127926, 0.049527913331985474, -0.04628220200538635, 0.019378336146473885, 0.008110578171908855, 0.14234943687915802, -0.04438531771302223, -0.10295084118843079, 0.007121936418116093, 0.047945551574230194, 0.036373019218444824, -0.005444673355668783, 0.06488226354122162, -0.04442952945828438, -0.029475968331098557, -0.0704769641160965, -0.15246832370758057, -0.06939160823822021, 0.0898532122373581, 0.016826998442411423, -0.07559961825609207, -0.10869630426168442, 0.1938161700963974, 0.0580800399184227, 0.020275495946407318, 0.03896541893482208, 0.18474732339382172, -0.00766033073887229, -0.06655639410018921, -0.03884277492761612, -0.06447188556194305, 0.07197928428649902, 0.11261394619941711, -0.056428778916597366, -0.0645182654261589, -0.06423075497150421, 0.07377219200134277, 0.0063981045968830585, 0.13533839583396912, 0.04973442107439041, -0.04722054302692413, -0.11870548129081726, 0.011941224336624146, 0.1034376248717308, -0.004389673471450806, -0.0669592022895813, 0.024908199906349182, -0.0971798524260521, 0.013562994077801704, -0.02193211205303669, -0.05221008509397507, -0.023903343826532364, -0.01421955693513155, 0.0026704666670411825, 0.01101465243846178, 0.0632648915052414, -0.09440397471189499, 0.10069718211889267, -0.011924147605895996, -0.010592336766421795, -0.020091326907277107, -0.03865159675478935, 0.01956471987068653, 0.01745145581662655, 0.14032502472400665, -0.023788556456565857, -0.19761492311954498, -0.014367422088980675, 0.0504160039126873, -0.03344593942165375, 0.05888780206441879, -0.09169892966747284, 0.03875185549259186, 0.06150633096694946, 0.057170968502759933, -0.04274903982877731, -0.10749950259923935, -0.06710907071828842, 0.12503746151924133, 0.11677653342485428, -0.13606402277946472, -0.00473799929022789, -0.04905987158417702, 0.06536136567592621, -0.029276996850967407, 0.06699752062559128, 0.03883049264550209, -0.029289565980434418, 0.05214870721101761, 0.19947181642055511, 0.01978337951004505, -0.010931877419352531, -0.035720083862543106, -0.019117649644613266, -0.008913644589483738, -0.03945915773510933, 0.001465755165554583, 0.01488154474645853, 0.06833543628454208, -0.04085318371653557, 0.08201071619987488, -0.10288581252098083, 0.08653312921524048, 0.1144203320145607, -0.07246292382478714, -0.018787739798426628, 0.11617644131183624, 0.012910459190607071, 0.0036067559849470854, -0.10279551893472672, -0.043177977204322815, -0.0012797650415450335, 0.09587615728378296, 0.08836840093135834, -0.05073297396302223, 0.0939587950706482, -0.07677190005779266, 0.17279240489006042, -0.04339085519313812, -0.0901767760515213, 0.11352211982011795, 0.10579168051481247, 0.07904322445392609, -0.025617649778723717, -0.05022246390581131, -0.025272443890571594, -0.02102518640458584, -0.1566278636455536, -0.02375209331512451, 0.020467106252908707, 0.17426073551177979, 0.020357592031359673, -0.06675347685813904, -0.04310236871242523, 0.08472233265638351, 0.09044623374938965, 0.052296824753284454, -0.014446933753788471, -0.03368176519870758, 0.04459838196635246, 0.032283782958984375, 0.035770826041698456, 0.024378132075071335, 0.011413727886974812, -0.08111768960952759, 0.11056504398584366, -0.055361635982990265, 0.02186998352408409, 0.040087904781103134, 0.05771900340914726, -0.048937007784843445, -0.12359971553087234, 0.006386102642863989, -0.08791114389896393, -0.1191020980477333, 0.004250101745128632, 0.09517848491668701, 0.057595472782850266, 0.07506581395864487, 0.010455608367919922, 0.07627976685762405, -0.05492881312966347, -0.16517800092697144, -0.05254026874899864, 0.049674440175294876, 0.027907293289899826, -0.007768583483994007, -0.01653083600103855, -0.004424080718308687, 0.08736936748027802, -0.058052584528923035, 0.005666724871844053, 0.02950398065149784, -0.1773538440465927, 0.1415490061044693, -0.04276037961244583, -0.0423257052898407, 0.023263350129127502, 0.08195272088050842, 0.04503491893410683, -0.0009918572613969445, -0.030297784134745598, 0.0027065109461545944, 0.008305611088871956, 0.13635413348674774, 0.020714882761240005, -0.013776914216578007, -0.11495473980903625, 0.045256756246089935, 0.0947212278842926, -0.06330374628305435, 0.07775916904211044, -0.01410736795514822, 0.025125114247202873, 0.05743297562003136, 0.014386802911758423, 0.1444644182920456, -0.024655474349856377, -0.033232182264328, -0.1855478137731552, -0.16587825119495392, 0.035095181316137314, 0.026983605697751045, 0.09265431016683578, 0.19277304410934448, -0.034290414303541183, 0.0746631920337677, 0.017422903329133987, -0.02547021396458149, -0.055709101259708405, 0.002334555145353079, -0.1459065079689026, 0.02512296475470066, 0.17028038203716278, 0.06393349170684814, 0.0377415232360363, -0.02825210802257061, 0.03748736530542374, 0.01110195741057396, -0.05673157051205635, 0.005479602608829737, -0.0023028107825666666, -0.0300051961094141, 0.15295544266700745, 0.13083289563655853, -0.0008724469807930291, -0.17920814454555511, -0.04837493225932121, -0.041370611637830734, -0.012907713651657104, 0.12089253216981888, -0.08560633659362793, 0.002805094001814723, 0.007195570506155491, -0.009080481715500355, -0.006417361553758383, -0.0643954947590828, 0.06010087579488754, 0.22600165009498596], [0.026632117107510567, 0.0501972995698452, 0.12170332670211792, -0.004674181807786226, -0.04115068167448044, -0.026233766227960587, -0.11590918898582458, -0.10070690512657166, -0.04687798395752907, 0.02416062355041504, -0.18581528961658478, -0.06411102414131165, 0.04765588417649269, 0.027227891609072685, 0.1934462934732437, 0.01759498566389084, 0.05160138010978699, -0.14199143648147583, -0.05876854062080383, -0.07535557448863983, 0.09054405987262726, 0.06999760866165161, 0.11409863829612732, 0.11152727901935577, 0.005954158492386341, -0.03241540864109993, 0.04802016541361809, 0.07861839234828949, -0.01276689488440752, 0.09987859427928925, 0.036611586809158325, 0.03919469937682152, 0.023696977645158768, 0.04650118574500084, 